


    // !!! This file is generated using emlearn !!!

    #include <eml_trees.h>
    
//
//EmlTreesNode clf_nodes[12343] = {
//  { 8, 86.49658148013827, 1, 165 },
//  { 1, 61.13980002195565, 2, 35 },
//  { 0, 21.26724612119945, 3, 34 },
//  { 5, 63.32431468336112, 4, 30 },
//  { 9, 52.122923898102215, 5, 20 },
//  { 5, 13.58900007958943, 6, 13 },
//  { 9, 18.793885088895394, 7, 8 },
//  { -1, 0, -1, -1 },
//  { 8, 22.955922988222877, 9, 11 },
//  { 4, 5.997305450028416, 10, 7 },
//  { 0, 1.4977758040175662, 7, 7 },
//  { 10, 43.84253717485933, 12, 7 },
//  { 9, 28.513187419862106, 7, 7 },
//  { 2, 3.322714734041465, 14, 19 },
//  { 7, 43.24806919332969, 15, 19 },
//  { 10, 4.010114620444418, 16, 17 },
//  { 9, 22.97954672015251, 7, 7 },
//  { 1, 5.52471703548204, 7, 18 },
//  { -1, 1, -1, -1 },
//  { -1, 2, -1, -1 },
//  { 3, 40.467647292869, 21, 28 },
//  { 1, 37.46706137315699, 22, 27 },
//  { 7, 50.29501203926979, 23, 24 },
//  { 10, 19.64346611948845, 7, 18 },
//  { 10, 13.567087196543387, 25, 7 },
//  { 6, 3.000678165350425, 26, 18 },
//  { -1, 3, -1, -1 },
//  { 10, 8.560279480908196, 18, 7 },
//  { 1, 7.821831243495378, 29, 19 },
//  { 9, 59.52070978820357, 26, 19 },
//  { 2, 24.663468797068795, 31, 26 },
//  { 10, 14.56339381288895, 19, 32 },
//  { 9, 124.99088144767605, 19, 33 },
//  { 9, 140.2900962826284, 19, 18 },
//  { 7, 13.83915517751088, 18, 26 },
//  { 6, 19.81956578596475, 36, 81 },
//  { 5, 105.93987716638478, 37, 54 },
//  { 8, 31.2376228050504, 38, 44 },
//  { 1, 96.63005682203456, 39, 43 },
//  { 0, 34.45992337747474, 40, 7 },
//  { 8, 29.05584438427158, 41, 18 },
//  { 8, 25.094378904483456, 18, 42 },
//  { 11, 12.692009174121548, 18, 18 },
//  { 6, 13.540702206800088, 18, 7 },
//  { 6, 11.679066092092109, 45, 46 },
//  { 0, 35.1129826354389, 18, 19 },
//  { 8, 35.02285952448047, 47, 49 },
//  { 3, 16.98427173820523, 48, 7 },
//  { 3, 0.15363126255275275, 18, 7 },
//  { 0, 29.936625053145285, 50, 52 },
//  { 11, 9.177607592277978, 19, 51 },
//  { 1, 77.10146875730784, 19, 18 },
//  { 10, 15.55594389911552, 18, 53 },
//  { 7, 48.59033293444213, 18, 19 },
//  { 4, 55.16090797873257, 55, 67 },
//  { 10, 27.788738312101337, 56, 19 },
//  { 6, 17.232176640644752, 57, 63 },
//  { 10, 16.545946834397476, 58, 60 },
//  { 9, 158.1712582801335, 59, 18 },
//  { 7, 34.846070346816475, 18, 18 },
//  { 10, 21.606209969430328, 61, 62 },
//  { 5, 161.54636587321124, 18, 18 },
//  { 5, 152.7768908426058, 19, 19 },
//  { 2, 28.775143862597247, 64, 19 },
//  { 3, 46.003627912143074, 65, 66 },
//  { 7, 21.438280009403023, 18, 19 },
//  { 2, 10.192411391154122, 19, 19 },
//  { 10, 15.72517818292844, 18, 68 },
//  { 3, 1.6396214103510702, 69, 75 },
//  { 11, 17.036189302818936, 70, 72 },
//  { 9, 192.72949378366093, 18, 71 },
//  { 8, 69.38202588650492, 18, 18 },
//  { 6, 18.818415678953013, 73, 74 },
//  { 4, 61.69626795998601, 18, 18 },
//  { 8, 68.3441086431705, 18, 19 },
//  { 10, 22.48005705721679, 76, 79 },
//  { 11, 17.85172738221089, 77, 78 },
//  { 8, 67.42457861705897, 18, 19 },
//  { 10, 19.527361965518146, 18, 19 },
//  { 8, 58.74000970634632, 18, 80 },
//  { 7, 29.535040589764268, 19, 19 },
//  { 3, 161.52244768548871, 82, 125 },
//  { 1, 177.1866644314428, 83, 107 },
//  { 6, 21.239844630118387, 84, 93 },
//  { 7, 83.67177472434555, 85, 89 },
//  { 0, 62.786112229705836, 86, 19 },
//  { 0, 56.59527086773667, 87, 88 },
//  { 3, 4.927867811605273, 18, 19 },
//  { 1, 171.95440460646265, 18, 18 },
//  { 10, 24.39260161267249, 19, 90 },
//  { 6, 20.68537298249331, 91, 92 },
//  { 3, 75.29849873776477, 19, 19 },
//  { 8, 61.48801202582568, 19, 19 },
//  { 11, 16.1107103680776, 94, 101 },
//  { 0, 47.37832951703031, 95, 98 },
//  { 2, 13.817048251543682, 96, 97 },
//  { 3, 55.857093423072754, 18, 19 },
//  { 9, 118.8592415344246, 19, 19 },
//  { 10, 35.878993203807156, 99, 100 },
//  { 4, 58.71356184208466, 19, 19 },
//  { 2, 3.189793542115853, 18, 19 },
//  { 8, 49.574408692109586, 102, 104 },
//  { 3, 35.77021431679382, 103, 19 },
//  { 3, 16.20054049892376, 18, 19 },
//  { 2, 82.08355747260319, 105, 106 },
//  { 3, 37.735391851857024, 18, 19 },
//  { 10, 49.94078948206305, 19, 19 },
//  { 6, 31.19135164152428, 108, 121 },
//  { 10, 25.912635748699604, 109, 115 },
//  { 6, 24.663737121812876, 110, 113 },
//  { 7, 46.74176545196295, 111, 112 },
//  { 10, 23.098119319462274, 18, 18 },
//  { 0, 60.0435416200401, 19, 19 },
//  { 0, 74.5616927056395, 114, 19 },
//  { 2, 2.2731240360406804, 18, 19 },
//  { 2, 49.24130508128614, 116, 119 },
//  { 0, 64.67802768325342, 117, 118 },
//  { 6, 27.000244416762257, 19, 19 },
//  { 7, 41.05271819562312, 18, 19 },
//  { 9, 210.30893112034954, 120, 19 },
//  { 9, 200.15499799053885, 19, 19 },
//  { 8, 79.04191555410713, 19, 122 },
//  { 9, 216.3280173383318, 123, 19 },
//  { 11, 31.508789710937435, 124, 19 },
//  { 9, 204.75543703546535, 26, 19 },
//  { 6, 43.1970169382156, 126, 143 },
//  { 3, 166.5533990061625, 127, 134 },
//  { 1, 103.17647972944029, 128, 131 },
//  { 5, 101.89809577581384, 129, 19 },
//  { 11, 32.10269660134925, 130, 19 },
//  { 4, 52.710268465667156, 19, 26 },
//  { 3, 163.5868071827976, 132, 19 },
//  { 10, 50.20727266427468, 19, 133 },
//  { 0, 59.18351802331559, 26, 19 },
//  { 7, 212.12871827098016, 135, 140 },
//  { 11, 36.972359027235, 136, 138 },
//  { 1, 103.82081739549562, 19, 137 },
//  { 5, 161.92009948888798, 19, 19 },
//  { 4, 58.14568009746525, 19, 139 },
//  { 7, 201.67177689618978, 19, 19 },
//  { 10, 40.04275509949902, 19, 141 },
//  { 8, 66.7372066698676, 19, 142 },
//  { 3, 250.91493625981497, 19, 19 },
//  { 8, 78.83294441543191, 144, 153 },
//  { 2, 241.74247646412928, 145, 148 },
//  { 6, 44.57084976070134, 19, 146 },
//  { 2, 216.65026961623238, 147, 19 },
//  { 7, 172.84550418697555, 19, 19 },
//  { 6, 45.5298413823032, 149, 151 },
//  { 1, 141.4700217333017, 19, 150 },
//  { 2, 248.27857632715188, 19, 19 },
//  { 7, 210.14143550961347, 19, 152 },
//  { 4, 67.05679350674934, 19, 19 },
//  { 7, 236.19326192428974, 154, 158 },
//  { 4, 95.5464871374641, 155, 19 },
//  { 7, 202.8037242772075, 156, 157 },
//  { 5, 164.33992443901485, 19, 19 },
//  { 6, 57.92095335383013, 19, 19 },
//  { 9, 108.75963979156671, 159, 162 },
//  { 10, 74.59113089954067, 160, 161 },
//  { 9, 105.83461382930848, 19, 26 },
//  { 0, 77.05675117208472, 26, 19 },
//  { 10, 54.01662147790967, 163, 164 },
//  { 10, 50.75009608489931, 19, 19 },
//  { 7, 242.982527731444, 19, 19 },
//  { 11, 89.59705163705956, 166, 300 },
//  { 4, 92.44452959086956, 167, 240 },
//  { 8, 96.50541227008468, 168, 212 },
//  { 9, 155.0431102845087, 169, 187 },
//  { 3, 247.88343269651915, 170, 177 },
//  { 11, 33.807135778389465, 26, 171 },
//  { 3, 227.51119346661085, 172, 175 },
//  { 11, 46.76457055134912, 173, 174 },
//  { 9, 144.93990948420944, 19, 19 },
//  { 2, 253.21038102042414, 19, 19 },
//  { 7, 192.77175187076057, 19, 176 },
//  { 9, 93.96928502897234, 19, 19 },
//  { 5, 110.56439894650336, 178, 180 },
//  { 6, 73.16759062426519, 179, 26 },
//  { 6, 72.9380598221617, 26, 19 },
//  { 10, 66.50846067280902, 181, 184 },
//  { 0, 83.7939094290109, 182, 183 },
//  { 3, 251.3035056727489, 19, 19 },
//  { 4, 88.03874057160631, 19, 19 },
//  { 10, 74.88026836927993, 185, 186 },
//  { 9, 153.35073712531045, 19, 26 },
//  { 8, 95.43803447877897, 19, 26 },
//  { 1, 197.04606507906973, 188, 202 },
//  { 6, 56.1199217285588, 189, 196 },
//  { 2, 82.69095081775028, 190, 193 },
//  { 0, 66.43247592050231, 191, 192 },
//  { 3, 10.157330109811076, 18, 26 },
//  { 0, 74.02596538747939, 19, 19 },
//  { 6, 51.75148023373982, 194, 195 },
//  { 7, 143.2408457003724, 19, 19 },
//  { 3, 239.01816546591846, 19, 26 },
//  { 2, 246.44288971901074, 197, 199 },
//  { 2, 203.60451030619652, 198, 26 },
//  { 7, 189.44637715697587, 19, 26 },
//  { 10, 64.55678347524106, 200, 201 },
//  { 2, 252.91940091174067, 19, 19 },
//  { 3, 224.10898326063017, 19, 26 },
//  { 7, 220.91670337548325, 203, 208 },
//  { 10, 43.42603408425396, 204, 206 },
//  { 0, 84.73044782352189, 205, 19 },
//  { 8, 87.60419717831732, 19, 19 },
//  { 9, 221.86296010383543, 207, 19 },
//  { 2, 108.10031081135399, 19, 19 },
//  { 7, 230.43773779526248, 19, 209 },
//  { 1, 217.6860708308807, 210, 211 },
//  { 11, 41.38924119872471, 19, 19 },
//  { 8, 93.49395675374845, 19, 19 },
//  { 2, 199.4824866407935, 213, 219 },
//  { 6, 59.16932131683888, 214, 218 },
//  { 6, 40.091078352225516, 18, 215 },
//  { 7, 88.73815852531146, 216, 217 },
//  { 8, 103.00134098157349, 18, 26 },
//  { 2, 142.5883474441191, 19, 26 },
//  { 10, 86.17493583968604, 19, 26 },
//  { 2, 248.25511546863947, 220, 227 },
//  { 1, 188.87793062435367, 19, 221 },
//  { 5, 211.37461772997614, 222, 225 },
//  { 1, 205.83547657348004, 223, 224 },
//  { 3, 184.0864520534344, 19, 19 },
//  { 3, 197.1449172311206, 19, 26 },
//  { 0, 84.6432575530574, 226, 19 },
//  { 6, 41.21168691488527, 26, 19 },
//  { 10, 74.68902394347313, 228, 234 },
//  { 10, 59.21122157490403, 229, 231 },
//  { 1, 205.07844283249156, 26, 230 },
//  { 5, 220.60158873424007, 19, 19 },
//  { 10, 62.882582395282846, 232, 233 },
//  { 4, 90.67645395206122, 19, 19 },
//  { 3, 242.18869705320742, 26, 19 },
//  { 0, 89.78083948082329, 235, 238 },
//  { 9, 145.9035243950335, 236, 237 },
//  { 9, 124.95238680064324, 26, 19 },
//  { 7, 200.12564607994895, 19, 26 },
//  { 2, 252.63788524765422, 239, 19 },
//  { 7, 253.17076643750573, 26, 26 },
//  { 4, 100.36989386350378, 241, 259 },
//  { 1, 115.71874542800651, 26, 242 },
//  { 11, 75.81481727157478, 243, 255 },
//  { 5, 216.78623119405762, 244, 251 },
//  { 6, 64.11409415309974, 245, 248 },
//  { 6, 54.64210418082872, 246, 247 },
//  { 6, 50.42809599192259, 19, 19 },
//  { 4, 99.0991525627203, 19, 26 },
//  { 6, 75.97017276704786, 249, 250 },
//  { 8, 99.71236730167287, 19, 26 },
//  { 7, 128.09126162207278, 26, 26 },
//  { 6, 42.96173065247095, 19, 252 },
//  { 6, 48.04774566788587, 253, 254 },
//  { 2, 195.6440279104952, 19, 19 },
//  { 10, 47.07519966507107, 19, 19 },
//  { 8, 106.80589964511148, 256, 26 },
//  { 5, 149.03214841756605, 257, 26 },
//  { 4, 96.5562989677099, 19, 258 },
//  { 4, 98.69060490219417, 26, 26 },
//  { 11, 78.15731858655685, 260, 288 },
//  { 6, 64.17382246683064, 261, 276 },
//  { 6, 58.247655897516594, 262, 269 },
//  { 10, 53.0530796130435, 263, 266 },
//  { 10, 51.93273555437696, 264, 265 },
//  { 5, 236.45489743140288, 19, 19 },
//  { 0, 104.58457847432446, 19, 19 },
//  { 9, 235.12979277695052, 267, 268 },
//  { 5, 215.79048824393678, 19, 19 },
//  { 5, 240.53599846434594, 19, 19 },
//  { 10, 61.7492833085122, 270, 273 },
//  { 4, 107.53826295842336, 271, 272 },
//  { 6, 61.589779208688896, 19, 26 },
//  { 0, 109.59342956151508, 19, 19 },
//  { 8, 110.88127825077683, 274, 275 },
//  { 1, 225.85551432466858, 26, 19 },
//  { 11, 59.11179512884085, 19, 19 },
//  { 9, 161.8330712187258, 277, 282 },
//  { 3, 159.99941379204364, 278, 280 },
//  { 9, 122.64783574950314, 26, 279 },
//  { 7, 84.33770709174578, 26, 18 },
//  { 6, 88.79853048352456, 281, 26 },
//  { 3, 244.14361997607332, 19, 26 },
//  { 1, 179.34554145361557, 283, 285 },
//  { 10, 95.86891318711866, 284, 18 },
//  { 4, 106.02059474681532, 19, 26 },
//  { 4, 117.01544555091087, 286, 287 },
//  { 5, 222.39366023726467, 26, 19 },
//  { 3, 120.6531378494823, 26, 26 },
//  { 9, 136.97003212243786, 26, 289 },
//  { 6, 95.70417272239186, 290, 297 },
//  { 10, 100.84054924726512, 291, 294 },
//  { 1, 201.53303055955703, 292, 293 },
//  { 8, 117.5016033269938, 26, 19 },
//  { 10, 91.04756491866314, 19, 26 },
//  { 11, 84.30683767297623, 295, 296 },
//  { 0, 116.0757813984881, 26, 26 },
//  { 4, 112.93495275915366, 26, 26 },
//  { 7, 135.50727693154815, 26, 298 },
//  { 11, 88.37542221479836, 299, 26 },
//  { 0, 110.91277581914923, 26, 26 },
//  { 10, 204.96916684320624, 301, 26 },
//  { 7, 196.2771809167588, 302, 310 },
//  { 8, 183.5796655693928, 303, 26 },
//  { 1, 144.6513793429599, 26, 304 },
//  { 1, 225.74524419603182, 305, 26 },
//  { 3, 84.79571232702384, 306, 308 },
//  { 4, 138.0930996067324, 307, 26 },
//  { 8, 111.64159130241796, 19, 26 },
//  { 10, 77.21909871381666, 19, 309 },
//  { 0, 164.71682178960964, 26, 26 },
//  { 3, 253.7393853551426, 311, 325 },
//  { 8, 161.4549886726099, 312, 321 },
//  { 11, 120.47961344592255, 313, 317 },
//  { 10, 122.35631720831447, 314, 26 },
//  { 5, 143.24830899119763, 315, 316 },
//  { 4, 106.18594713471175, 19, 26 },
//  { 8, 143.65500586184442, 26, 26 },
//  { 11, 171.07697460338332, 318, 26 },
//  { 6, 150.9309761272422, 319, 320 },
//  { 1, 156.93403533144576, 26, 26 },
//  { 3, 249.58227868405277, 26, 26 },
//  { 5, 200.6393927226958, 26, 322 },
//  { 5, 211.5926736935939, 26, 323 },
//  { 9, 215.54687856070086, 26, 324 },
//  { 4, 207.02061457094766, 26, 26 },
//  { 10, 161.6498197008156, 326, 26 },
//  { 10, 94.81785177011874, 327, 330 },
//  { 7, 244.29462709198455, 26, 328 },
//  { 10, 79.4507299631139, 19, 329 },
//  { 9, 227.37670740456167, 26, 19 },
//  { 6, 149.37871666642778, 331, 26 },
//  { 1, 146.00632346095813, 26, 332 },
//  { 6, 133.30883358433323, 26, 26 },
//  { 7, 113.69942326084684, 334, 426 },
//  { 1, 81.34722003077493, 335, 374 },
//  { 5, 31.18304029069051, 336, 355 },
//  { 6, 28.699493598052996, 337, 26 },
//  { 4, 1.2923278525901623, 338, 342 },
//  { 6, 3.0234708520693103, 339, 7 },
//  { 8, 12.31743190452337, 7, 340 },
//  { 10, 8.189310366841642, 341, 7 },
//  { 10, 5.7888484209724, 7, 18 },
//  { 7, 13.155060207077796, 343, 347 },
//  { 0, 6.005941767248298, 344, 7 },
//  { 9, 22.23374320391274, 7, 345 },
//  { 5, 21.363848265429887, 346, 7 },
//  { 6, 6.916681030260716, 7, 18 },
//  { 5, 9.013420663314601, 348, 351 },
//  { 4, 3.0540516884317865, 7, 349 },
//  { 3, 1.755101743040188, 350, 7 },
//  { 0, 2.1315660095454967, 7, 7 },
//  { 4, 10.01439139340743, 352, 7 },
//  { 4, 7.100755391689369, 353, 354 },
//  { 3, 9.712331696745164, 26, 19 },
//  { 10, 18.06236209257616, 19, 18 },
//  { 8, 87.66861941696546, 356, 26 },
//  { 5, 48.95332035513284, 357, 361 },
//  { 4, 47.09629054791121, 358, 26 },
//  { 0, 6.0445951251520755, 7, 359 },
//  { 3, 24.628626399034925, 360, 7 },
//  { 10, 4.635468913538134, 7, 18 },
//  { 8, 20.347094767422924, 362, 366 },
//  { 4, 17.879131987168982, 363, 18 },
//  { 6, 0.537317811761665, 7, 364 },
//  { 10, 0.5869813359281892, 365, 7 },
//  { 8, 11.603943918181557, 7, 7 },
//  { 3, 15.04979175284961, 367, 370 },
//  { 0, 5.694234326339436, 7, 368 },
//  { 1, 76.80420514745833, 369, 18 },
//  { 0, 18.094813465184913, 7, 18 },
//  { 7, 74.83911837816197, 371, 372 },
//  { 4, 28.764383620938464, 19, 26 },
//  { 8, 53.14904607466843, 373, 26 },
//  { 9, 121.15810369102195, 19, 19 },
//  { 4, 137.05556463965007, 375, 423 },
//  { 7, 7.01381423371556, 376, 396 },
//  { 1, 97.70055695981745, 377, 383 },
//  { 1, 93.45077412084247, 378, 380 },
//  { 8, 32.45296217848219, 379, 18 },
//  { 11, 12.179919646671005, 18, 7 },
//  { 6, 12.407715718451755, 381, 18 },
//  { 9, 92.87263480754225, 382, 18 },
//  { 1, 95.93215542143777, 7, 18 },
//  { 9, 130.42288005837372, 384, 389 },
//  { 9, 97.01830485324297, 385, 386 },
//  { 9, 85.15657432803725, 7, 18 },
//  { 8, 47.48407231107544, 387, 18 },
//  { 10, 15.09867896935841, 388, 18 },
//  { 1, 107.41109723663475, 18, 18 },
//  { 1, 137.2640341665894, 18, 390 },
//  { 1, 148.19820458171804, 391, 393 },
//  { 5, 154.19793030675405, 392, 18 },
//  { 6, 20.2028575126095, 18, 18 },
//  { 7, 2.048587716207182, 394, 395 },
//  { 0, 56.26102359558503, 18, 18 },
//  { 0, 63.00279486877974, 18, 18 },
//  { 8, 98.12398926686681, 397, 410 },
//  { 7, 10.619436978185288, 398, 402 },
//  { 0, 67.7575979860302, 399, 18 },
//  { 0, 61.68190493745818, 400, 18 },
//  { 6, 18.864199528407397, 401, 18 },
//  { 9, 147.7185992434242, 18, 18 },
//  { 6, 79.09564787619544, 403, 26 },
//  { 10, 26.685531907102806, 404, 407 },
//  { 9, 96.33347175798075, 405, 406 },
//  { 8, 34.326587957016464, 7, 19 },
//  { 8, 57.18384650125347, 19, 19 },
//  { 9, 212.04405990757238, 408, 409 },
//  { 8, 82.05037616940697, 19, 19 },
//  { 11, 53.978770157778065, 19, 26 },
//  { 6, 45.26272138499782, 411, 413 },
//  { 5, 176.85542769490527, 18, 412 },
//  { 6, 42.8038338203001, 18, 26 },
//  { 6, 70.25206501467716, 414, 417 },
//  { 10, 87.88026845542727, 415, 26 },
//  { 6, 63.92069794839281, 416, 19 },
//  { 4, 98.7564311925119, 19, 26 },
//  { 7, 91.24439143726806, 418, 421 },
//  { 11, 108.33033734063167, 419, 420 },
//  { 2, 39.681225975826955, 26, 26 },
//  { 0, 134.33185756268531, 26, 19 },
//  { 10, 105.69439778090194, 422, 26 },
//  { 1, 105.13236505730653, 26, 26 },
//  { 2, 133.4297182813425, 424, 19 },
//  { 9, 168.22238622429893, 26, 425 },
//  { 10, 102.54739425217146, 19, 26 },
//  { 3, 216.11324182949645, 427, 504 },
//  { 11, 72.77387280751665, 428, 492 },
//  { 8, 96.39136667521268, 429, 459 },
//  { 3, 203.17383487763527, 430, 451 },
//  { 8, 66.11618120834054, 431, 439 },
//  { 7, 121.0168813411225, 432, 435 },
//  { 6, 35.09184633572206, 433, 19 },
//  { 3, 116.03678155412747, 434, 19 },
//  { 3, 105.05810072136023, 18, 19 },
//  { 2, 32.93300265676016, 26, 436 },
//  { 11, 24.506414777835094, 437, 438 },
//  { 10, 28.820527533917, 19, 19 },
//  { 0, 55.881943947114955, 19, 19 },
//  { 3, 171.92930858951496, 440, 445 },
//  { 11, 40.095874113075375, 441, 443 },
//  { 6, 53.47558050485122, 442, 26 },
//  { 10, 29.348340340120878, 19, 19 },
//  { 10, 40.02934624954562, 19, 444 },
//  { 9, 166.0464642895602, 19, 19 },
//  { 9, 205.8922060946432, 446, 449 },
//  { 11, 36.20511815101147, 447, 448 },
//  { 9, 194.30973654580754, 19, 19 },
//  { 10, 44.62935897597548, 19, 19 },
//  { 4, 86.92028664793833, 450, 19 },
//  { 3, 195.8009088075724, 19, 19 },
//  { 1, 239.32764330568148, 452, 19 },
//  { 1, 199.94683010594306, 453, 19 },
//  { 6, 56.06278564411345, 454, 457 },
//  { 10, 60.63086321932769, 455, 456 },
//  { 6, 40.77487561049632, 19, 19 },
//  { 7, 174.54739245611586, 19, 19 },
//  { 10, 68.34698164386069, 26, 458 },
//  { 9, 140.61965896730294, 19, 19 },
//  { 11, 47.797733462321446, 460, 476 },
//  { 8, 104.99800859158766, 461, 472 },
//  { 11, 33.894270743659824, 462, 466 },
//  { 6, 38.45584065488346, 18, 463 },
//  { 1, 210.5338850652491, 464, 465 },
//  { 1, 207.6349167668423, 19, 19 },
//  { 10, 57.66855477991912, 26, 19 },
//  { 3, 202.1618731814259, 467, 470 },
//  { 1, 206.28057784926173, 468, 469 },
//  { 1, 203.82241919395628, 26, 19 },
//  { 7, 138.43785578638216, 26, 19 },
//  { 0, 89.56111709706538, 471, 19 },
//  { 3, 208.91286128755326, 19, 19 },
//  { 0, 77.11676206957398, 26, 473 },
//  { 1, 232.78228184710363, 474, 26 },
//  { 8, 113.7834089150575, 475, 26 },
//  { 9, 231.7799405473191, 19, 19 },
//  { 10, 74.60660006739506, 477, 488 },
//  { 7, 181.85045106748606, 478, 484 },
//  { 8, 97.26182977029208, 479, 481 },
//  { 7, 158.8319791568592, 480, 19 },
//  { 4, 98.03463857995096, 19, 19 },
//  { 0, 96.86883681727053, 482, 483 },
//  { 0, 92.5741677063397, 26, 26 },
//  { 7, 170.22756653522492, 19, 19 },
//  { 1, 249.41938625668146, 485, 19 },
//  { 8, 110.54593516073466, 486, 487 },
//  { 9, 241.94651626513644, 19, 19 },
//  { 7, 203.0222825836494, 19, 26 },
//  { 10, 80.05902648533649, 489, 26 },
//  { 6, 68.59591899281178, 490, 26 },
//  { 10, 77.32058484727544, 19, 491 },
//  { 8, 116.68912407834507, 26, 19 },
//  { 4, 179.26222247456303, 493, 26 },
//  { 4, 101.57836077482364, 26, 494 },
//  { 10, 112.00635398179588, 495, 26 },
//  { 6, 86.00451979181008, 496, 501 },
//  { 7, 162.44097126575232, 497, 499 },
//  { 6, 79.19064450272855, 498, 26 },
//  { 11, 85.80989664504766, 19, 19 },
//  { 7, 200.4896028821774, 500, 26 },
//  { 9, 220.18726237359795, 26, 19 },
//  { 4, 131.61370005720002, 502, 26 },
//  { 6, 110.86831156158276, 503, 26 },
//  { 0, 185.06783555311517, 26, 19 },
//  { 4, 162.63204458525036, 505, 549 },
//  { 10, 140.36800767032804, 506, 26 },
//  { 0, 117.36049092624359, 507, 530 },
//  { 11, 54.6366207872688, 508, 515 },
//  { 2, 245.45023637844727, 19, 509 },
//  { 3, 235.81381899668548, 510, 512 },
//  { 2, 249.39894055267746, 19, 511 },
//  { 8, 54.809953218703136, 19, 19 },
//  { 4, 109.81723031905351, 513, 514 },
//  { 5, 247.90409204638755, 19, 19 },
//  { 9, 213.6589990652441, 19, 26 },
//  { 11, 69.48437833575736, 516, 523 },
//  { 9, 230.25545045279685, 517, 520 },
//  { 11, 66.42964732713516, 518, 519 },
//  { 4, 93.62585600168717, 19, 26 },
//  { 6, 71.68404026081974, 26, 26 },
//  { 1, 236.16245424987864, 521, 522 },
//  { 3, 250.11846080241654, 19, 19 },
//  { 2, 250.3680297841169, 19, 19 },
//  { 2, 252.4416647248164, 524, 527 },
//  { 0, 104.06311011270765, 525, 526 },
//  { 6, 77.27320398728978, 26, 26 },
//  { 1, 184.30210922020586, 26, 26 },
//  { 1, 233.2345713429314, 528, 529 },
//  { 8, 109.82166714166368, 26, 26 },
//  { 11, 70.2782563163332, 19, 19 },
//  { 6, 94.70516450782547, 531, 541 },
//  { 8, 134.94171894804654, 532, 536 },
//  { 1, 246.16257293669628, 533, 19 },
//  { 1, 219.91114723724831, 534, 535 },
//  { 1, 217.57658099782495, 26, 19 },
//  { 9, 237.18297097561089, 26, 19 },
//  { 6, 88.72404622785936, 537, 539 },
//  { 0, 125.6215075215425, 538, 26 },
//  { 2, 252.3599223109707, 26, 26 },
//  { 6, 93.47428581746028, 540, 26 },
//  { 8, 137.5426483538666, 26, 26 },
//  { 3, 243.7360183702484, 542, 545 },
//  { 10, 117.95264010082587, 543, 26 },
//  { 8, 125.43425495989354, 19, 544 },
//  { 8, 143.26017239795075, 19, 26 },
//  { 5, 146.70854321387995, 26, 546 },
//  { 8, 142.27555351996588, 547, 548 },
//  { 0, 137.08883383036073, 26, 26 },
//  { 10, 136.673906852805, 26, 26 },
//  { 11, 231.5759844270423, 550, 26 },
//  { 9, 118.05295240741826, 26, 551 },
//  { 1, 151.36455132503275, 552, 556 },
//  { 11, 161.33429367902423, 553, 26 },
//  { 11, 160.38863250072515, 26, 554 },
//  { 1, 147.25220438896315, 555, 26 },
//  { 3, 247.84581325289133, 26, 26 },
//  { 8, 177.84466684648984, 557, 560 },
//  { 6, 166.1216482376315, 558, 26 },
//  { 10, 136.47971853636193, 559, 26 },
//  { 3, 253.92869217923317, 26, 26 },
//  { 4, 196.34101316721225, 561, 26 },
//  { 6, 163.13767600019355, 26, 562 },
//  { 3, 250.66262494989792, 26, 26 },
//  { 6, 153.0907353791831, 564, 753 },
//  { 3, 12.780783056645088, 565, 634 },
//  { 5, 89.41516930489576, 566, 593 },
//  { 4, 17.630084153092504, 567, 583 },
//  { 1, 33.34128674275302, 568, 578 },
//  { 9, 23.334135135325667, 7, 569 },
//  { 7, 31.701716106246092, 570, 573 },
//  { 9, 49.56603889240233, 571, 7 },
//  { 4, 10.242399510109053, 572, 7 },
//  { 4, 6.779223877368134, 7, 7 },
//  { 4, 4.882283194401433, 574, 576 },
//  { 9, 40.045535089003636, 575, 7 },
//  { 7, 37.91081258277912, 7, 18 },
//  { 8, 46.35527764230747, 577, 7 },
//  { 0, 0.7976484693575876, 19, 18 },
//  { 0, 11.399743528757124, 579, 18 },
//  { 10, 1.9419955345531905, 580, 7 },
//  { 4, 10.931729353932537, 7, 581 },
//  { 9, 47.47330039715082, 7, 582 },
//  { 9, 49.73399555344786, 7, 7 },
//  { 6, 40.79014869210783, 584, 26 },
//  { 4, 19.500472568674233, 585, 586 },
//  { 1, 19.969206196707304, 7, 18 },
//  { 1, 40.12409174774032, 7, 587 },
//  { 10, 10.476904947532763, 588, 591 },
//  { 0, 24.400070019718292, 589, 590 },
//  { 9, 85.98373989201325, 18, 7 },
//  { 10, 9.744463965177752, 18, 18 },
//  { 4, 27.37486266129411, 18, 592 },
//  { 6, 14.363457578869284, 18, 7 },
//  { 8, 44.00443538278547, 594, 604 },
//  { 8, 33.492113995129294, 595, 598 },
//  { 11, 12.515733828076968, 596, 597 },
//  { 4, 33.558202754500414, 18, 7 },
//  { 4, 34.24486668931547, 18, 7 },
//  { 7, 46.212166517606086, 599, 19 },
//  { 7, 8.244970486613443, 600, 603 },
//  { 0, 46.569563836590184, 18, 601 },
//  { 4, 41.96749482209212, 7, 602 },
//  { 1, 183.64109688142366, 18, 18 },
//  { 3, 1.6756167363727543, 18, 19 },
//  { 3, 1.13284114242198, 605, 624 },
//  { 10, 23.122066525333594, 606, 615 },
//  { 3, 0.004826327788097005, 607, 611 },
//  { 1, 109.85685177420119, 18, 608 },
//  { 1, 148.14083119954023, 609, 610 },
//  { 4, 45.013279707642866, 18, 18 },
//  { 10, 18.58686866498872, 18, 18 },
//  { 10, 19.23490811895342, 612, 613 },
//  { 5, 171.4443855022287, 19, 18 },
//  { 8, 56.639371739066846, 19, 614 },
//  { 0, 63.06355759923512, 18, 18 },
//  { 11, 19.00002583395691, 616, 621 },
//  { 4, 62.42556718756704, 617, 619 },
//  { 9, 153.8336475826025, 18, 618 },
//  { 0, 62.690274392576086, 19, 18 },
//  { 11, 16.05284630975353, 18, 620 },
//  { 5, 196.18206713077709, 18, 19 },
//  { 1, 130.13103899598636, 18, 622 },
//  { 11, 27.859917267626113, 623, 18 },
//  { 7, 19.80976602146857, 18, 19 },
//  { 8, 97.03218619061269, 625, 632 },
//  { 8, 87.31619965439485, 626, 26 },
//  { 9, 195.1580158714941, 627, 629 },
//  { 6, 36.754059020315324, 628, 18 },
//  { 9, 194.2178884815508, 19, 18 },
//  { 8, 68.65956816992703, 630, 631 },
//  { 1, 190.59080770406445, 18, 19 },
//  { 10, 35.619425135487425, 18, 19 },
//  { 7, 33.26578955597514, 633, 26 },
//  { 10, 75.39240426681582, 18, 26 },
//  { 8, 128.5304001004111, 635, 716 },
//  { 0, 113.85004155517092, 636, 681 },
//  { 2, 112.03397994024398, 637, 657 },
//  { 8, 100.13405048108383, 638, 649 },
//  { 3, 83.35192140999806, 639, 646 },
//  { 9, 206.3884954594022, 640, 643 },
//  { 2, 4.5141782888743, 641, 642 },
//  { 2, 1.1100446288986339, 19, 19 },
//  { 9, 93.41823511077939, 7, 19 },
//  { 5, 201.32228799132736, 644, 645 },
//  { 0, 70.46957959303147, 19, 19 },
//  { 7, 94.66445219268299, 19, 19 },
//  { 10, 74.55681060978995, 647, 26 },
//  { 0, 70.05399686333445, 648, 19 },
//  { 10, 59.006022135729914, 19, 19 },
//  { 8, 126.56679999295939, 650, 656 },
//  { 10, 90.54562913744972, 651, 653 },
//  { 8, 108.29819776317952, 652, 26 },
//  { 5, 169.52296867478776, 26, 19 },
//  { 11, 16.64977216564574, 654, 655 },
//  { 8, 116.8654162701524, 26, 18 },
//  { 7, 99.3134236840128, 26, 26 },
//  { 2, 1.8723692846821478, 18, 26 },
//  { 10, 80.60962698078231, 658, 673 },
//  { 3, 214.1186652654403, 659, 666 },
//  { 10, 52.797033330796765, 660, 663 },
//  { 11, 21.099895172333298, 661, 662 },
//  { 7, 132.57868462362265, 19, 19 },
//  { 6, 39.61172243422443, 19, 19 },
//  { 8, 78.0873923683946, 664, 665 },
//  { 3, 191.47256394963364, 19, 19 },
//  { 0, 86.80029001357047, 19, 19 },
//  { 10, 58.61150320554688, 667, 670 },
//  { 0, 99.5271233886141, 668, 669 },
//  { 6, 46.840547886602835, 19, 19 },
//  { 9, 239.9439315595403, 19, 19 },
//  { 3, 217.73948484879895, 671, 672 },
//  { 4, 84.74529025319279, 19, 19 },
//  { 7, 218.63604520570303, 19, 19 },
//  { 2, 224.08701392174095, 26, 674 },
//  { 10, 90.82360199318435, 675, 678 },
//  { 0, 88.91620015628459, 676, 677 },
//  { 3, 238.07908652773085, 19, 26 },
//  { 7, 214.48874385444856, 19, 26 },
//  { 7, 204.32284713085875, 679, 680 },
//  { 0, 104.78429954954623, 26, 19 },
//  { 7, 236.965690495896, 26, 26 },
//  { 1, 211.31506321174794, 682, 694 },
//  { 2, 240.0891423682166, 683, 687 },
//  { 1, 173.00051090586953, 684, 19 },
//  { 0, 162.08597291684055, 685, 26 },
//  { 5, 128.79682993041203, 26, 686 },
//  { 9, 166.0349484333, 26, 19 },
//  { 9, 156.39528425289097, 688, 691 },
//  { 1, 124.63274737011304, 26, 689 },
//  { 5, 153.3630577984094, 690, 26 },
//  { 9, 151.92574665272875, 26, 26 },
//  { 10, 90.7959400465693, 26, 692 },
//  { 11, 101.97349242957938, 693, 26 },
//  { 2, 253.40735872807323, 26, 19 },
//  { 10, 74.2272292963356, 695, 705 },
//  { 5, 244.6568908885386, 696, 702 },
//  { 11, 69.52338926052832, 697, 699 },
//  { 2, 228.5727723080538, 26, 698 },
//  { 8, 109.89555660490672, 19, 19 },
//  { 9, 238.56402281698027, 700, 701 },
//  { 0, 116.74465493985669, 26, 19 },
//  { 5, 240.55115362375562, 19, 19 },
//  { 9, 246.25233714759923, 19, 703 },
//  { 1, 242.73880262381343, 19, 704 },
//  { 2, 248.10265997755465, 26, 19 },
//  { 5, 217.7725623281545, 706, 709 },
//  { 3, 167.3884206313586, 19, 707 },
//  { 1, 215.02609632770816, 708, 26 },
//  { 2, 253.7108349007139, 26, 26 },
//  { 9, 240.08821292831013, 710, 713 },
//  { 10, 80.54984497537363, 711, 712 },
//  { 8, 120.07402606218776, 19, 26 },
//  { 5, 221.3361274578311, 19, 26 },
//  { 8, 125.3841651032605, 714, 715 },
//  { 0, 118.57932034254974, 19, 19 },
//  { 0, 122.52135521849681, 26, 19 },
//  { 3, 214.519551759362, 26, 717 },
//  { 11, 129.78191073554657, 718, 741 },
//  { 6, 115.529654441648, 719, 733 },
//  { 8, 133.9328400990613, 720, 726 },
//  { 7, 221.64657004440508, 721, 723 },
//  { 5, 221.81353186062236, 26, 722 },
//  { 5, 222.5374395430728, 19, 26 },
//  { 8, 130.37040564109125, 724, 725 },
//  { 11, 59.06452941804404, 19, 26 },
//  { 0, 116.75386784307373, 26, 26 },
//  { 6, 91.12648042995784, 727, 730 },
//  { 0, 108.96671739265635, 728, 729 },
//  { 6, 85.06269623295529, 19, 19 },
//  { 5, 228.7874934020394, 26, 26 },
//  { 8, 146.52707143152463, 731, 732 },
//  { 7, 228.55225932810094, 26, 26 },
//  { 11, 82.86690256878124, 26, 26 },
//  { 2, 251.34915563247594, 734, 737 },
//  { 9, 145.13666980906234, 26, 735 },
//  { 11, 119.06622184443577, 736, 26 },
//  { 5, 194.8612777669268, 26, 26 },
//  { 9, 206.63172215206163, 26, 738 },
//  { 5, 216.95737062485767, 739, 740 },
//  { 2, 252.0823361371096, 26, 26 },
//  { 0, 148.82665912193556, 26, 26 },
//  { 6, 139.49610583227877, 742, 746 },
//  { 4, 139.18993760328271, 26, 743 },
//  { 4, 145.33522821838744, 26, 744 },
//  { 6, 130.69465274722066, 745, 26 },
//  { 1, 218.94893010377368, 26, 26 },
//  { 9, 149.79403758272252, 747, 750 },
//  { 6, 148.71263173162595, 748, 26 },
//  { 10, 133.3988962771366, 26, 749 },
//  { 7, 251.63956722879763, 26, 26 },
//  { 6, 145.3792740117662, 751, 26 },
//  { 1, 208.61612074850876, 26, 752 },
//  { 4, 168.23392730822505, 26, 26 },
//  { 10, 172.58983643427018, 754, 26 },
//  { 4, 171.61830258677634, 755, 762 },
//  { 4, 158.96078182941338, 26, 756 },
//  { 1, 139.11180469398937, 26, 757 },
//  { 4, 164.59264826476232, 26, 758 },
//  { 10, 161.17769926096204, 759, 26 },
//  { 5, 152.86081333917605, 760, 26 },
//  { 1, 143.65836410487927, 26, 761 },
//  { 0, 170.14875395323557, 26, 26 },
//  { 5, 231.39707635640963, 763, 26 },
//  { 1, 221.18336777444154, 764, 26 },
//  { 10, 164.66594202847497, 765, 26 },
//  { 10, 150.01813584380696, 26, 766 },
//  { 9, 180.91314937682503, 26, 767 },
//  { 6, 187.13293439016348, 768, 26 },
//  { 11, 181.35402641787846, 26, 26 },
//  { 6, 7.156702670807346, 770, 800 },
//  { 10, 6.816778914917623, 771, 784 },
//  { 0, 10.993279499464332, 772, 779 },
//  { 7, 1.5546883761671784, 773, 7 },
//  { 1, 6.843871092816754, 774, 7 },
//  { 4, 4.762174961512058, 7, 775 },
//  { 8, 11.367382214575718, 7, 776 },
//  { 9, 39.512027816619735, 18, 777 },
//  { 4, 8.142527422468424, 778, 7 },
//  { 6, 3.68263633534435, 7, 7 },
//  { 9, 54.21708042510649, 780, 18 },
//  { 1, 48.35647755971014, 7, 781 },
//  { 6, 0.326761108043958, 7, 782 },
//  { 5, 49.03585857201175, 7, 783 },
//  { 8, 11.047958124916981, 7, 7 },
//  { 7, 41.60739503037529, 785, 794 },
//  { 11, 8.160017890930185, 786, 18 },
//  { 10, 12.16287528777629, 787, 793 },
//  { 8, 16.617840871968234, 788, 7 },
//  { 11, 3.945633043044076, 789, 7 },
//  { 5, 6.857160479695145, 790, 7 },
//  { 4, 1.269152489616141, 791, 792 },
//  { 9, 39.033822544866155, 7, 18 },
//  { 5, 3.012806017889085, 7, 7 },
//  { 7, 24.28292220937224, 7, 18 },
//  { 10, 28.523743873240306, 795, 7 },
//  { 7, 52.65019413114069, 7, 796 },
//  { 3, 13.28391442647386, 797, 798 },
//  { 6, 3.227892720712299, 26, 19 },
//  { 9, 96.56265009872739, 799, 19 },
//  { 6, 5.84815847121559, 18, 19 },
//  { 10, 216.2164556920605, 801, 26 },
//  { 3, 233.34444557472338, 802, 859 },
//  { 4, 74.56981173649888, 803, 838 },
//  { 3, 34.58962854630762, 804, 823 },
//  { 7, 12.29221681472483, 805, 813 },
//  { 5, 42.099540869751735, 806, 808 },
//  { 4, 9.574068065068715, 807, 7 },
//  { 11, 7.132660605540806, 18, 7 },
//  { 4, 41.84482880674527, 809, 811 },
//  { 9, 117.61256830981587, 810, 18 },
//  { 5, 119.88927021803767, 18, 7 },
//  { 1, 141.53452087358318, 18, 812 },
//  { 7, 1.845544836411972, 18, 18 },
//  { 0, 36.402838673630185, 814, 817 },
//  { 10, 59.975310113269515, 815, 26 },
//  { 0, 28.576894967154086, 816, 19 },
//  { 0, 7.009821122982456, 7, 7 },
//  { 7, 40.23889828903549, 818, 821 },
//  { 9, 132.03061458423298, 819, 820 },
//  { 8, 41.938838495844436, 7, 18 },
//  { 6, 16.977484838560915, 18, 18 },
//  { 3, 1.6061772339074767, 18, 822 },
//  { 1, 166.58737395731146, 19, 19 },
//  { 5, 187.0772726210194, 824, 831 },
//  { 10, 18.966874521675926, 18, 825 },
//  { 4, 58.02462419309869, 826, 829 },
//  { 2, 67.51211089431872, 827, 828 },
//  { 10, 43.19483217233551, 19, 7 },
//  { 0, 51.48473751567525, 19, 19 },
//  { 10, 72.00051263533557, 830, 26 },
//  { 9, 94.24756078293899, 19, 19 },
//  { 2, 137.9337878739153, 832, 19 },
//  { 10, 31.903717621184754, 833, 836 },
//  { 3, 92.44665747156677, 834, 835 },
//  { 6, 21.409248913828865, 19, 19 },
//  { 10, 28.059384642662195, 19, 19 },
//  { 3, 53.72639753749892, 19, 837 },
//  { 1, 187.00832254393413, 19, 19 },
//  { 6, 191.68839486115073, 839, 26 },
//  { 5, 180.27746719740213, 840, 848 },
//  { 8, 139.7179363010069, 841, 26 },
//  { 3, 159.78841518228333, 842, 845 },
//  { 2, 65.51500599156833, 843, 844 },
//  { 2, 13.00354527682231, 26, 26 },
//  { 10, 56.48215955285456, 19, 26 },
//  { 0, 154.4788428500662, 846, 847 },
//  { 6, 51.46987450377544, 19, 19 },
//  { 6, 113.07978798452754, 19, 26 },
//  { 6, 86.32415013542592, 849, 856 },
//  { 5, 223.6752926365823, 850, 853 },
//  { 11, 23.871929442450373, 851, 852 },
//  { 10, 37.545178469058676, 19, 19 },
//  { 7, 111.85420016378825, 19, 19 },
//  { 10, 84.42896655221887, 854, 855 },
//  { 4, 112.4439237185027, 19, 26 },
//  { 5, 234.78706019361832, 19, 26 },
//  { 6, 150.40474948631822, 857, 26 },
//  { 8, 149.37879721325766, 858, 26 },
//  { 0, 110.08652501277929, 26, 26 },
//  { 4, 67.35655436774556, 860, 872 },
//  { 6, 46.918733138087546, 861, 866 },
//  { 3, 252.52704021079794, 19, 862 },
//  { 5, 105.04366940029136, 863, 19 },
//  { 10, 41.951518888097034, 19, 864 },
//  { 8, 63.77244153980745, 19, 865 },
//  { 7, 253.54817958900153, 19, 19 },
//  { 11, 40.78021996597769, 26, 867 },
//  { 8, 62.40244971048201, 19, 868 },
//  { 7, 240.62797968584485, 19, 869 },
//  { 5, 106.54135165109362, 870, 871 },
//  { 11, 43.56366964129902, 19, 19 },
//  { 4, 65.6316012361234, 19, 19 },
//  { 4, 85.70474593094771, 873, 893 },
//  { 9, 115.88389021432208, 874, 882 },
//  { 1, 107.83704926298793, 875, 19 },
//  { 10, 62.761664978583184, 876, 879 },
//  { 9, 100.54236196332721, 877, 878 },
//  { 5, 94.6941725978135, 19, 26 },
//  { 7, 242.8062982702657, 19, 19 },
//  { 7, 239.27559646231848, 880, 881 },
//  { 1, 95.87075070611702, 19, 19 },
//  { 6, 64.90931619094187, 19, 26 },
//  { 4, 83.98282334999313, 883, 889 },
//  { 10, 71.72688617730833, 884, 887 },
//  { 4, 72.12069460801813, 885, 886 },
//  { 1, 137.08109615420975, 19, 19 },
//  { 8, 77.70913685472176, 19, 19 },
//  { 10, 75.4544105462052, 888, 26 },
//  { 6, 58.73123020154016, 19, 26 },
//  { 10, 43.94801798832976, 19, 890 },
//  { 10, 63.76628434600601, 891, 892 },
//  { 10, 51.739617223264474, 19, 19 },
//  { 10, 71.64559969662018, 19, 26 },
//  { 10, 47.90617875005406, 894, 901 },
//  { 10, 42.04913835136645, 19, 895 },
//  { 10, 45.646128424744184, 896, 898 },
//  { 0, 96.64550209028903, 897, 19 },
//  { 5, 227.32510093102468, 19, 19 },
//  { 9, 225.61449841019441, 899, 900 },
//  { 8, 90.50406027562174, 19, 19 },
//  { 1, 226.90971577070175, 19, 19 },
//  { 10, 72.63715667307244, 902, 908 },
//  { 10, 50.606537339560006, 903, 905 },
//  { 9, 241.81353511000682, 904, 19 },
//  { 4, 88.39267271682279, 19, 19 },
//  { 11, 58.28883122619653, 906, 907 },
//  { 8, 95.15536191927053, 19, 19 },
//  { 3, 241.28805756535758, 19, 19 },
//  { 8, 130.17384805072743, 909, 912 },
//  { 10, 81.89321542200317, 910, 911 },
//  { 1, 148.68220031013814, 19, 26 },
//  { 10, 105.53380804347518, 26, 26 },
//  { 6, 100.71034429488253, 913, 914 },
//  { 11, 76.63486314361676, 26, 26 },
//  { 2, 251.9846825743954, 26, 26 },
//  { 3, 132.18733900328508, 916, 1031 },
//  { 6, 91.94589753632708, 917, 1018 },
//  { 1, 77.0224646297388, 918, 944 },
//  { 0, 24.113140893221434, 919, 942 },
//  { 0, 17.01951602148801, 920, 935 },
//  { 0, 12.637321255932246, 921, 931 },
//  { 10, 36.59859803998778, 922, 928 },
//  { 8, 36.49808338540517, 923, 926 },
//  { 10, 18.331244292823246, 924, 925 },
//  { 8, 7.976406422432701, 7, 7 },
//  { 2, 11.298483023093308, 7, 19 },
//  { 3, 49.344238934733085, 927, 19 },
//  { 9, 134.14570811304532, 19, 18 },
//  { 5, 63.60916139912287, 929, 26 },
//  { 10, 68.15867166042266, 930, 26 },
//  { 3, 19.62268003617538, 7, 7 },
//  { 2, 5.701486998098663, 932, 933 },
//  { 4, 22.96528917549424, 18, 7 },
//  { 5, 84.56789148019995, 934, 26 },
//  { 11, 11.428798617529123, 19, 26 },
//  { 7, 38.490507098143226, 936, 940 },
//  { 0, 20.189666190272973, 937, 938 },
//  { 11, 11.475954246463232, 18, 7 },
//  { 10, 10.725325840397424, 939, 18 },
//  { 10, 9.983118304043598, 7, 18 },
//  { 5, 68.85996712178921, 26, 941 },
//  { 6, 25.80913883625024, 19, 26 },
//  { 8, 58.55716564532237, 943, 26 },
//  { 2, 38.98345200297584, 18, 19 },
//  { 5, 203.59216653583206, 945, 990 },
//  { 4, 75.33113188637938, 946, 971 },
//  { 6, 24.335040518238692, 947, 962 },
//  { 7, 86.28256743600711, 948, 955 },
//  { 3, 19.123595207521504, 949, 952 },
//  { 3, 9.766984348542515, 950, 951 },
//  { 6, 16.27152707067855, 18, 18 },
//  { 1, 95.73446391976181, 19, 19 },
//  { 9, 149.5959667547587, 953, 954 },
//  { 7, 34.833767921586414, 7, 19 },
//  { 7, 61.182163071903474, 19, 19 },
//  { 8, 61.03741885537161, 956, 959 },
//  { 9, 128.29968612934448, 957, 958 },
//  { 2, 42.00894748839035, 19, 19 },
//  { 8, 54.91495792284373, 26, 19 },
//  { 6, 21.729996437081134, 960, 961 },
//  { 9, 158.59778212038697, 19, 19 },
//  { 7, 99.34407826994736, 19, 19 },
//  { 10, 52.48575547825813, 963, 970 },
//  { 9, 191.47322867972463, 964, 967 },
//  { 3, 35.88398582110367, 965, 966 },
//  { 5, 160.1616225355126, 18, 18 },
//  { 2, 27.965511521308457, 19, 19 },
//  { 9, 206.78918794905263, 968, 969 },
//  { 10, 30.887246314849353, 18, 19 },
//  { 3, 15.838997607975731, 19, 19 },
//  { 6, 33.6786263187782, 18, 26 },
//  { 10, 74.79803644670082, 972, 982 },
//  { 1, 194.6459931687666, 973, 976 },
//  { 2, 29.82047820455417, 19, 974 },
//  { 9, 205.03909480480434, 19, 975 },
//  { 1, 192.312336805422, 26, 19 },
//  { 2, 9.124039966205153, 977, 980 },
//  { 8, 90.93467565296902, 978, 979 },
//  { 6, 32.749020918155566, 19, 26 },
//  { 8, 95.97349828201044, 26, 18 },
//  { 5, 194.17008384837308, 19, 981 },
//  { 5, 198.0390183930467, 19, 19 },
//  { 1, 161.2240753449612, 983, 988 },
//  { 10, 85.46637955515942, 984, 986 },
//  { 4, 95.53018601496247, 985, 26 },
//  { 9, 152.88969263662105, 26, 19 },
//  { 11, 41.05341925241678, 987, 26 },
//  { 10, 91.78011369741527, 26, 18 },
//  { 8, 122.945156781443, 989, 26 },
//  { 8, 118.1387278913235, 26, 18 },
//  { 5, 207.5387089608883, 991, 1005 },
//  { 0, 68.60325565962273, 992, 999 },
//  { 7, 18.57259581730356, 18, 993 },
//  { 6, 28.175393602426812, 994, 996 },
//  { 8, 76.70972200702397, 19, 995 },
//  { 8, 86.83794712919646, 19, 26 },
//  { 8, 105.80089628594038, 997, 998 },
//  { 6, 30.847963181253505, 19, 26 },
//  { 1, 196.70607310799232, 18, 26 },
//  { 3, 71.93853429888307, 1000, 1003 },
//  { 5, 204.33135182332776, 19, 1001 },
//  { 11, 27.482927622032783, 1002, 19 },
//  { 8, 86.57892995401235, 19, 26 },
//  { 5, 206.0368098826319, 19, 1004 },
//  { 8, 110.98237719339429, 19, 26 },
//  { 6, 49.28828625347851, 1006, 1014 },
//  { 1, 197.0018626512037, 1007, 1010 },
//  { 6, 35.521693124213115, 19, 1008 },
//  { 3, 60.88455562148455, 1009, 19 },
//  { 6, 36.87008686078251, 19, 19 },
//  { 2, 58.77490773367458, 1011, 19 },
//  { 8, 90.69704336286385, 1012, 1013 },
//  { 9, 208.5530097906259, 26, 19 },
//  { 7, 100.44939944588086, 19, 18 },
//  { 9, 219.97483632432989, 1015, 19 },
//  { 4, 95.4902313619341, 26, 1016 },
//  { 2, 21.654545246462593, 26, 1017 },
//  { 3, 105.71680492382347, 19, 19 },
//  { 2, 59.50496220984727, 1019, 1025 },
//  { 2, 10.455666193950766, 1020, 1022 },
//  { 0, 95.95262318195432, 26, 1021 },
//  { 9, 184.1249157819547, 18, 26 },
//  { 4, 116.73326414997376, 26, 1023 },
//  { 8, 128.73583370341726, 1024, 26 },
//  { 9, 174.62238910171314, 26, 19 },
//  { 7, 117.69668262903424, 1026, 26 },
//  { 3, 76.4603027116788, 1027, 1028 },
//  { 5, 158.69325250978267, 26, 19 },
//  { 3, 88.83839825114161, 26, 1029 },
//  { 10, 108.07007985705047, 1030, 26 },
//  { 7, 88.23457563958809, 19, 26 },
//  { 10, 149.67517069991453, 1032, 1124 },
//  { 11, 125.52351296950295, 1033, 1105 },
//  { 3, 229.86889177740966, 1034, 1062 },
//  { 4, 111.3157668967339, 1035, 1050 },
//  { 10, 86.68895655436859, 1036, 26 },
//  { 10, 57.79440742907785, 1037, 1044 },
//  { 10, 37.611727611446625, 1038, 1041 },
//  { 1, 170.56297145856684, 1039, 1040 },
//  { 5, 116.02711691056709, 19, 19 },
//  { 1, 208.39594226861183, 19, 19 },
//  { 6, 39.5879053527433, 1042, 1043 },
//  { 2, 191.71010691053704, 19, 19 },
//  { 3, 212.3674448204075, 19, 19 },
//  { 4, 83.0936056958016, 1045, 1047 },
//  { 9, 131.46406776945295, 19, 1046 },
//  { 0, 76.9376736115374, 19, 26 },
//  { 4, 86.63023208856127, 1048, 1049 },
//  { 7, 189.744406173818, 19, 19 },
//  { 8, 103.86200092912745, 19, 19 },
//  { 3, 191.6131322433302, 1051, 1054 },
//  { 10, 68.81529516066206, 19, 1052 },
//  { 9, 169.38192037464208, 26, 1053 },
//  { 6, 86.3954896681921, 26, 19 },
//  { 8, 159.2355576652268, 1055, 26 },
//  { 7, 189.88399796042776, 1056, 1059 },
//  { 6, 72.11583692120195, 1057, 1058 },
//  { 7, 181.85956027678193, 19, 26 },
//  { 8, 136.14731123724363, 26, 26 },
//  { 9, 240.0432017957993, 1060, 1061 },
//  { 8, 105.07941392254057, 19, 26 },
//  { 6, 68.69269516118462, 26, 26 },
//  { 4, 112.66187627132138, 1063, 1079 },
//  { 6, 39.476567035762855, 19, 1064 },
//  { 10, 64.9449516292405, 1065, 1072 },
//  { 4, 70.00070346146855, 1066, 1069 },
//  { 11, 51.25331376225376, 1067, 1068 },
//  { 7, 225.8981465324285, 19, 19 },
//  { 4, 69.94669032513475, 19, 19 },
//  { 6, 57.932304175073426, 1070, 1071 },
//  { 6, 43.57820133053614, 19, 19 },
//  { 3, 241.9037225488125, 19, 19 },
//  { 0, 107.75027829257319, 1073, 1076 },
//  { 6, 68.04925085280522, 1074, 1075 },
//  { 2, 253.05884092164172, 26, 26 },
//  { 7, 225.46422710803535, 19, 26 },
//  { 1, 184.36003268666568, 1077, 1078 },
//  { 3, 239.93053782402097, 19, 26 },
//  { 11, 73.53708919023028, 26, 19 },
//  { 7, 211.78733518942602, 1080, 1091 },
//  { 9, 216.21392036565297, 1081, 1085 },
//  { 0, 122.66969199370112, 1082, 1084 },
//  { 5, 189.59910871442366, 26, 1083 },
//  { 2, 253.1953091026262, 26, 26 },
//  { 4, 134.02528561885714, 26, 19 },
//  { 8, 119.05669021841916, 1086, 1088 },
//  { 7, 201.95912082165438, 1087, 19 },
//  { 8, 112.50520792161358, 19, 26 },
//  { 6, 86.67680266577602, 1089, 1090 },
//  { 4, 122.68361750463193, 19, 19 },
//  { 1, 221.41122208089158, 26, 26 },
//  { 11, 64.19057484818184, 1092, 1098 },
//  { 5, 230.56133156715023, 1093, 1096 },
//  { 9, 221.58585920072434, 1094, 1095 },
//  { 6, 74.16818142969542, 26, 26 },
//  { 8, 131.6215179937992, 26, 19 },
//  { 5, 247.918513072151, 1097, 19 },
//  { 1, 238.11900545289694, 19, 19 },
//  { 11, 78.85947717999083, 1099, 1102 },
//  { 11, 76.1505024913468, 1100, 1101 },
//  { 6, 72.10027127903899, 19, 26 },
//  { 10, 90.34709001674648, 26, 26 },
//  { 11, 99.93619445568704, 1103, 1104 },
//  { 10, 84.66827628047591, 19, 26 },
//  { 3, 252.03966525804236, 26, 26 },
//  { 0, 133.84868629130008, 26, 1106 },
//  { 8, 147.08060446944114, 1107, 1114 },
//  { 11, 174.70191856599502, 1108, 1112 },
//  { 0, 151.77148907714127, 26, 1109 },
//  { 5, 133.64441238373723, 26, 1110 },
//  { 1, 139.62719582422972, 26, 1111 },
//  { 9, 181.60407479880567, 26, 26 },
//  { 6, 127.63554674230309, 1113, 26 },
//  { 9, 196.7727531864181, 19, 26 },
//  { 8, 156.51153638563656, 1115, 1120 },
//  { 4, 177.1921062242203, 1116, 26 },
//  { 1, 168.3638734572399, 26, 1117 },
//  { 4, 165.79720263592768, 1118, 1119 },
//  { 7, 188.5887708415225, 26, 26 },
//  { 9, 222.20599964317213, 26, 19 },
//  { 6, 136.69187599918428, 1121, 26 },
//  { 6, 134.10719741885885, 1122, 26 },
//  { 3, 248.1497320989844, 26, 1123 },
//  { 5, 217.94589763039068, 26, 26 },
//  { 11, 189.35806677646843, 1125, 26 },
//  { 1, 146.83680303480327, 1126, 1132 },
//  { 10, 163.94213309415716, 1127, 26 },
//  { 10, 155.8296596900698, 26, 1128 },
//  { 1, 124.7755403308084, 26, 1129 },
//  { 1, 141.2414647593356, 26, 1130 },
//  { 5, 145.56557533404117, 26, 1131 },
//  { 10, 161.8018752247104, 26, 26 },
//  { 9, 207.5677182565293, 26, 1133 },
//  { 0, 194.22257072023234, 26, 1134 },
//  { 4, 201.42875912945195, 1135, 26 },
//  { 6, 182.98542122029951, 1136, 26 },
//  { 6, 175.51174092642577, 1137, 26 },
//  { 1, 224.9072498427272, 26, 26 },
//  { 7, 176.4899243891658, 1139, 1242 },
//  { 3, 116.11937540868269, 1140, 1201 },
//  { 8, 5.307922759236732, 7, 1141 },
//  { 6, 19.646885063334782, 1142, 1173 },
//  { 11, 2.9835193888207523, 1143, 1153 },
//  { 6, 9.093087450644507, 1144, 1151 },
//  { 8, 31.662674384965875, 1145, 19 },
//  { 3, 4.703411066300893, 1146, 1149 },
//  { 1, 2.1091621611775655, 1147, 1148 },
//  { 5, 9.03217374860876, 7, 7 },
//  { 4, 6.774555996421052, 7, 7 },
//  { 6, 2.3575101775850684, 26, 1150 },
//  { 3, 21.89592732949924, 19, 18 },
//  { 1, 0.6318924388065433, 19, 1152 },
//  { 8, 47.810973718208714, 19, 18 },
//  { 8, 22.825361208908895, 1154, 1161 },
//  { 1, 23.073928516858224, 1155, 1158 },
//  { 7, 61.73076946741472, 1156, 19 },
//  { 5, 31.525042313861213, 1157, 7 },
//  { 1, 1.1090901592323046, 7, 7 },
//  { 6, 2.3037799663393663, 7, 1159 },
//  { 8, 19.037464625685224, 18, 1160 },
//  { 8, 21.70144596123204, 7, 18 },
//  { 3, 55.57335963266593, 1162, 1169 },
//  { 5, 96.79639273360203, 1163, 1166 },
//  { 5, 56.19612861806346, 1164, 1165 },
//  { 11, 6.772546815580012, 7, 7 },
//  { 6, 8.30659507974358, 7, 18 },
//  { 11, 20.830391717530038, 1167, 1168 },
//  { 4, 57.34062597124867, 18, 18 },
//  { 9, 140.42147604442272, 7, 18 },
//  { 8, 69.92560339715592, 1170, 1172 },
//  { 10, 20.631615601308464, 19, 1171 },
//  { 8, 44.84013552537194, 19, 19 },
//  { 3, 61.83504603143551, 19, 26 },
//  { 11, 49.86297093278867, 1174, 1190 },
//  { 10, 89.68695119707237, 1175, 1185 },
//  { 1, 114.25761671003775, 1176, 1181 },
//  { 6, 39.44633146349636, 1177, 1180 },
//  { 7, 13.780507302740824, 1178, 1179 },
//  { 8, 36.439677339251936, 7, 18 },
//  { 9, 79.30922522177418, 7, 19 },
//  { 2, 89.56030841523796, 26, 19 },
//  { 11, 40.165699977039225, 1182, 19 },
//  { 11, 17.32259041598187, 1183, 1184 },
//  { 8, 87.37447664345358, 19, 26 },
//  { 9, 172.59070672122328, 19, 18 },
//  { 10, 103.87597648281417, 1186, 26 },
//  { 1, 91.37351270829026, 26, 1187 },
//  { 5, 167.99647681182086, 1188, 1189 },
//  { 4, 102.44373529099101, 18, 26 },
//  { 11, 21.97121008577347, 18, 26 },
//  { 5, 162.25110567745338, 1191, 1194 },
//  { 3, 78.15642965499146, 1192, 26 },
//  { 3, 45.44756235529089, 1193, 26 },
//  { 1, 147.16619784765234, 26, 18 },
//  { 5, 166.17204028748537, 1195, 1196 },
//  { 4, 73.67731445919597, 18, 26 },
//  { 11, 137.73019736247613, 1197, 1199 },
//  { 2, 90.66689283012734, 1198, 19 },
//  { 6, 62.77298865736135, 19, 26 },
//  { 6, 138.15730870010205, 1200, 26 },
//  { 9, 212.11118343151696, 19, 26 },
//  { 4, 190.06002827596853, 1202, 26 },
//  { 10, 47.11868038313402, 1203, 1223 },
//  { 10, 30.51660454250714, 19, 1204 },
//  { 3, 167.65249664459958, 1205, 1216 },
//  { 10, 39.75037637760415, 1206, 1210 },
//  { 7, 123.14406172472242, 19, 1207 },
//  { 6, 28.335502244222678, 1208, 1209 },
//  { 10, 34.876298146264766, 19, 19 },
//  { 11, 43.0991912098132, 19, 19 },
//  { 5, 207.52907634457995, 1211, 1214 },
//  { 4, 75.07009801923768, 1212, 1213 },
//  { 7, 124.31996827820315, 19, 19 },
//  { 3, 124.61188582592266, 26, 19 },
//  { 1, 234.3603893012555, 1215, 19 },
//  { 10, 46.720036641098574, 19, 19 },
//  { 4, 80.3752046052251, 1217, 1220 },
//  { 5, 100.47212409808864, 19, 1218 },
//  { 11, 53.203956856487295, 1219, 19 },
//  { 6, 41.61847681441273, 19, 19 },
//  { 11, 50.27555204055996, 1221, 19 },
//  { 11, 42.083202051503214, 1222, 19 },
//  { 7, 157.65071251599616, 19, 19 },
//  { 10, 174.42197097950708, 1224, 26 },
//  { 10, 48.79981746561817, 1225, 1229 },
//  { 11, 52.06834755934232, 1226, 19 },
//  { 1, 205.03577530665126, 1227, 19 },
//  { 1, 149.9514368441661, 19, 1228 },
//  { 2, 194.0835214537026, 19, 19 },
//  { 11, 93.4281738835518, 1230, 1237 },
//  { 8, 111.09373487443372, 1231, 1234 },
//  { 10, 65.43386521443439, 1232, 1233 },
//  { 5, 238.074221336783, 19, 19 },
//  { 11, 81.6359721820969, 19, 26 },
//  { 7, 146.2159113917574, 1235, 1236 },
//  { 9, 222.05807977591553, 19, 26 },
//  { 10, 82.43063157770347, 26, 26 },
//  { 4, 122.32080535791852, 1238, 1240 },
//  { 10, 74.07874299403221, 19, 1239 },
//  { 10, 94.95602482601815, 19, 26 },
//  { 9, 202.1914110594389, 1241, 26 },
//  { 7, 112.92243766175696, 19, 26 },
//  { 0, 114.31904042806431, 1243, 1292 },
//  { 8, 62.88443417888341, 19, 1244 },
//  { 4, 69.81415735735285, 1245, 1260 },
//  { 10, 61.79184980727352, 1246, 1256 },
//  { 1, 124.66324961542303, 1247, 1252 },
//  { 3, 251.85341800882173, 19, 1248 },
//  { 11, 38.70639268528036, 26, 1249 },
//  { 5, 95.00366427796132, 1250, 1251 },
//  { 11, 55.883237541133184, 19, 19 },
//  { 4, 61.93365300443659, 19, 19 },
//  { 5, 141.26334162394673, 19, 1253 },
//  { 3, 249.67929662935404, 19, 1254 },
//  { 4, 67.59047242234949, 19, 1255 },
//  { 8, 77.75762181531528, 19, 19 },
//  { 1, 131.91901429878502, 1257, 26 },
//  { 4, 62.26322943403536, 26, 1258 },
//  { 9, 103.59114760933032, 1259, 19 },
//  { 1, 99.69707228182679, 19, 26 },
//  { 8, 80.28984102899668, 1261, 1270 },
//  { 10, 69.56941105405306, 1262, 1269 },
//  { 0, 84.7219115601489, 1263, 19 },
//  { 6, 42.778488421709504, 1264, 1266 },
//  { 7, 228.9687666734535, 19, 1265 },
//  { 6, 41.98071473975699, 19, 19 },
//  { 0, 79.12140885513341, 1267, 1268 },
//  { 7, 192.0351697374299, 19, 19 },
//  { 9, 119.2150020544487, 19, 19 },
//  { 10, 70.47689824666683, 19, 26 },
//  { 10, 54.83301558244648, 1271, 1278 },
//  { 10, 41.229548495369755, 19, 1272 },
//  { 2, 238.71253997539753, 1273, 1275 },
//  { 10, 49.39124583797122, 19, 1274 },
//  { 1, 239.54936771166948, 19, 19 },
//  { 6, 51.54516239862198, 1276, 1277 },
//  { 6, 47.918533856476905, 19, 19 },
//  { 5, 233.16943857267938, 19, 19 },
//  { 5, 179.34892189099867, 1279, 1286 },
//  { 0, 81.17547942473342, 1280, 1283 },
//  { 5, 111.53715266638304, 1281, 1282 },
//  { 3, 241.80368938101628, 19, 26 },
//  { 7, 247.72567884331835, 19, 19 },
//  { 10, 66.21566875242426, 1284, 1285 },
//  { 8, 89.41552083213605, 19, 19 },
//  { 5, 111.00053984019931, 26, 26 },
//  { 8, 108.82370764148594, 1287, 1289 },
//  { 4, 109.98658213018746, 1288, 19 },
//  { 9, 224.6589402317344, 19, 19 },
//  { 5, 235.7599754965678, 1290, 1291 },
//  { 5, 222.7267091594295, 26, 26 },
//  { 10, 59.82269922030284, 19, 19 },
//  { 8, 185.1273858920333, 1293, 26 },
//  { 6, 101.41856299779312, 1294, 1312 },
//  { 6, 98.23083918040192, 1295, 1307 },
//  { 6, 65.64375504089695, 19, 1296 },
//  { 8, 136.06101429558407, 1297, 1304 },
//  { 8, 112.52813526453829, 1298, 1301 },
//  { 6, 87.19457027930514, 1299, 1300 },
//  { 10, 59.720208776984464, 19, 19 },
//  { 11, 84.53761470715405, 19, 26 },
//  { 10, 81.90650158929941, 1302, 1303 },
//  { 1, 238.5610933725541, 19, 19 },
//  { 11, 80.71054782891206, 26, 26 },
//  { 5, 231.19429071489455, 1305, 26 },
//  { 7, 253.28132761422606, 26, 1306 },
//  { 5, 228.30304361102313, 26, 26 },
//  { 8, 147.60455896314446, 1308, 26 },
//  { 10, 96.51663729386247, 19, 1309 },
//  { 3, 253.7728260465771, 26, 1310 },
//  { 6, 100.41944250344272, 1311, 26 },
//  { 5, 217.31466271929193, 26, 26 },
//  { 11, 158.99017309722964, 1313, 1328 },
//  { 7, 234.26803568111177, 1314, 1321 },
//  { 8, 136.94951587028314, 1315, 1318 },
//  { 10, 106.16239862524085, 1316, 26 },
//  { 3, 253.48031668713332, 1317, 26 },
//  { 7, 204.97684183017205, 19, 26 },
//  { 4, 140.99509266204905, 1319, 26 },
//  { 1, 217.64763574565185, 26, 1320 },
//  { 5, 224.4833792315253, 26, 19 },
//  { 3, 248.56812880773475, 1322, 1325 },
//  { 4, 142.83838133785798, 26, 1323 },
//  { 11, 147.56151497017663, 26, 1324 },
//  { 2, 246.49783909669978, 26, 26 },
//  { 8, 176.04785930181288, 1326, 26 },
//  { 6, 148.0369790811264, 1327, 26 },
//  { 9, 235.44994096804874, 26, 26 },
//  { 8, 166.77894346824797, 1329, 1333 },
//  { 6, 160.7018380652656, 26, 1330 },
//  { 10, 161.6984688899007, 1331, 26 },
//  { 6, 174.3293250591165, 1332, 26 },
//  { 6, 169.43543162869076, 26, 26 },
//  { 8, 173.25026781775534, 26, 1334 },
//  { 7, 216.84935702702467, 26, 1335 },
//  { 10, 176.89293475397534, 1336, 26 },
//  { 8, 178.60469584474558, 26, 26 },
//  { 1, 84.37333616166065, 1338, 1381 },
//  { 11, 3.5042464074232833, 1339, 1359 },
//  { 9, 7.041348874122533, 7, 1340 },
//  { 6, 7.477256670350794, 1341, 1355 },
//  { 1, 34.39032367169406, 1342, 1350 },
//  { 5, 63.03122843849996, 1343, 19 },
//  { 2, 2.6600509289000422, 1344, 19 },
//  { 5, 21.014046241070165, 1345, 1348 },
//  { 4, 3.8688450026646466, 1346, 1347 },
//  { 9, 19.05282586861999, 7, 7 },
//  { 3, 8.623154146886968, 7, 19 },
//  { 7, 16.97619856660077, 7, 1349 },
//  { 7, 64.23576402768296, 19, 18 },
//  { 9, 29.04497270055347, 7, 1351 },
//  { 8, 14.255763740863541, 1352, 18 },
//  { 11, 1.8570177517165511, 1353, 7 },
//  { 10, 0.24644204473422934, 1354, 7 },
//  { 0, 10.891849557818775, 7, 7 },
//  { 3, 88.52571113059562, 1356, 26 },
//  { 1, 17.938001532078722, 1357, 19 },
//  { 6, 13.28746667936792, 1358, 19 },
//  { 8, 40.44530453972765, 19, 18 },
//  { 6, 19.949697029287787, 1360, 1374 },
//  { 3, 30.586189711739397, 1361, 19 },
//  { 11, 9.492212467124784, 1362, 1371 },
//  { 1, 61.27223706863459, 1363, 1370 },
//  { 9, 45.622916615858166, 1364, 1367 },
//  { 9, 15.574640413082504, 7, 1365 },
//  { 0, 2.917091087399559, 1366, 7 },
//  { 0, 1.738394466572625, 7, 7 },
//  { 6, 10.293115043217835, 1368, 7 },
//  { 5, 61.099369110120165, 1369, 18 },
//  { 0, 1.1631512493654859, 7, 7 },
//  { 9, 78.9469163249931, 18, 7 },
//  { 0, 18.37889444892243, 1372, 18 },
//  { 9, 52.154504268967784, 1373, 7 },
//  { 0, 17.316608119903414, 7, 18 },
//  { 8, 63.824704883538516, 1375, 1377 },
//  { 3, 38.23385167784703, 1376, 19 },
//  { 6, 42.72744896902118, 7, 26 },
//  { 1, 69.32734218534424, 1378, 26 },
//  { 1, 19.69481521597822, 1379, 26 },
//  { 7, 81.81538699838119, 1380, 26 },
//  { 6, 54.52392673889358, 7, 26 },
//  { 2, 61.93664577646956, 1382, 1440 },
//  { 8, 45.727525799873995, 1383, 1402 },
//  { 7, 80.58605801015443, 1384, 19 },
//  { 1, 113.66243150954247, 1385, 1390 },
//  { 6, 10.01241829991919, 18, 1386 },
//  { 3, 19.723624130582262, 1387, 19 },
//  { 5, 111.15986403644078, 1388, 18 },
//  { 4, 38.60768540650964, 1389, 18 },
//  { 3, 6.829643925106918, 18, 19 },
//  { 3, 12.424703438032745, 1391, 7 },
//  { 10, 12.762318238970972, 1392, 1397 },
//  { 8, 35.343224437601506, 1393, 1395 },
//  { 10, 9.106156025596967, 18, 1394 },
//  { 7, 0.6643672015817683, 7, 18 },
//  { 8, 37.90163475037629, 18, 1396 },
//  { 8, 40.43817205654372, 18, 18 },
//  { 9, 121.97160174556618, 1398, 1400 },
//  { 1, 148.1260197717352, 1399, 7 },
//  { 6, 15.230468922401997, 18, 18 },
//  { 5, 132.6797469103149, 18, 1401 },
//  { 7, 22.033596725218743, 18, 26 },
//  { 4, 127.65015183233197, 1403, 1436 },
//  { 6, 75.57856872891008, 1404, 1428 },
//  { 4, 76.25371036224706, 1405, 1416 },
//  { 6, 15.066605222442469, 1406, 1410 },
//  { 3, 14.85374959877401, 1407, 1409 },
//  { 3, 9.974085318843875, 1408, 19 },
//  { 7, 25.120250597652163, 18, 18 },
//  { 4, 49.53145135265377, 19, 26 },
//  { 6, 31.07273613059555, 1411, 1414 },
//  { 1, 118.63681730471403, 1412, 1413 },
//  { 10, 29.69142091539289, 18, 19 },
//  { 7, 24.311982583399853, 18, 19 },
//  { 10, 33.8831396861389, 1415, 19 },
//  { 10, 31.90701147956169, 19, 19 },
//  { 5, 204.69366812365766, 1417, 1423 },
//  { 3, 55.89464739053261, 1418, 1421 },
//  { 10, 61.326184793527325, 1419, 1420 },
//  { 5, 203.26175933296875, 19, 19 },
//  { 4, 97.23285288327972, 26, 18 },
//  { 3, 77.07868296330733, 19, 1422 },
//  { 4, 95.66112346326054, 26, 19 },
//  { 0, 78.27050216322323, 1424, 1426 },
//  { 4, 101.67134438113837, 1425, 26 },
//  { 11, 16.05424080698483, 19, 19 },
//  { 10, 50.25959987438265, 19, 1427 },
//  { 11, 49.39538782480889, 19, 26 },
//  { 7, 63.788927170349716, 26, 1429 },
//  { 3, 76.06059839579305, 1430, 1433 },
//  { 9, 153.45627847707658, 1431, 26 },
//  { 9, 146.29091433682055, 1432, 26 },
//  { 8, 113.1091547017494, 26, 18 },
//  { 1, 135.23028610191787, 1434, 18 },
//  { 1, 102.00088373012882, 26, 1435 },
//  { 8, 123.97059447316946, 26, 18 },
//  { 0, 189.29796152016985, 1437, 26 },
//  { 6, 105.30881550223977, 1438, 26 },
//  { 10, 69.0094491862736, 19, 1439 },
//  { 0, 118.24263067182275, 26, 19 },
//  { 11, 149.4191392839044, 1441, 1530 },
//  { 1, 217.56380142763433, 1442, 1494 },
//  { 0, 68.56837645339237, 1443, 1472 },
//  { 3, 202.9307770244455, 1444, 1459 },
//  { 8, 66.25087483564899, 1445, 1452 },
//  { 0, 52.96639890175611, 1446, 1449 },
//  { 5, 116.59706010045346, 1447, 1448 },
//  { 11, 22.101527113980396, 19, 19 },
//  { 1, 138.95831843230795, 19, 19 },
//  { 3, 187.3807220283806, 1450, 1451 },
//  { 2, 196.83658682733616, 19, 19 },
//  { 5, 134.3730429673442, 19, 19 },
//  { 3, 170.56360953187738, 1453, 1456 },
//  { 10, 60.821025812915074, 1454, 1455 },
//  { 8, 70.3081649613139, 19, 19 },
//  { 1, 127.19587824642466, 26, 19 },
//  { 3, 172.92464326830796, 1457, 1458 },
//  { 2, 226.7086743287317, 26, 19 },
//  { 1, 144.12385170679718, 19, 19 },
//  { 1, 140.1247222680248, 1460, 1466 },
//  { 11, 51.54718714186325, 1461, 1464 },
//  { 9, 101.73955478972735, 1462, 1463 },
//  { 10, 53.340335535509666, 19, 19 },
//  { 3, 229.18550973720173, 19, 19 },
//  { 3, 251.51051395130833, 26, 1465 },
//  { 1, 100.02190005174927, 19, 19 },
//  { 6, 42.7922826259361, 1467, 1469 },
//  { 2, 251.9719171887133, 19, 1468 },
//  { 2, 252.30827048295563, 19, 19 },
//  { 5, 143.0895484071642, 1470, 1471 },
//  { 11, 39.07886883806385, 19, 19 },
//  { 3, 253.78855375190665, 26, 19 },
//  { 1, 213.12941481970688, 1473, 1484 },
//  { 2, 209.76973422512864, 1474, 1481 },
//  { 6, 40.69373223683505, 1475, 1478 },
//  { 10, 42.9217346552395, 1476, 1477 },
//  { 1, 191.73734333121095, 19, 19 },
//  { 8, 89.54538328179409, 19, 19 },
//  { 5, 182.03293914302856, 1479, 1480 },
//  { 8, 92.1853821045651, 19, 26 },
//  { 10, 57.71584147527621, 19, 26 },
//  { 6, 140.29735858426307, 1482, 26 },
//  { 11, 128.07886541126243, 1483, 26 },
//  { 10, 140.47156383771056, 19, 26 },
//  { 2, 247.44639630683065, 1485, 1488 },
//  { 6, 39.11120259860121, 19, 1486 },
//  { 4, 114.21009886088319, 1487, 26 },
//  { 8, 92.77512601100612, 19, 19 },
//  { 11, 100.75803353626189, 1489, 1492 },
//  { 4, 91.97410821214976, 1490, 1491 },
//  { 8, 91.6702156004823, 19, 19 },
//  { 6, 73.12031379580512, 19, 26 },
//  { 2, 252.37654020468543, 26, 1493 },
//  { 9, 218.561327316594, 26, 26 },
//  { 10, 60.636267019266384, 1495, 1515 },
//  { 7, 227.7836769846192, 1496, 1504 },
//  { 2, 91.82363280226646, 19, 1497 },
//  { 8, 99.72232091972712, 1498, 1501 },
//  { 8, 93.39149232785752, 1499, 1500 },
//  { 2, 159.7265877042555, 19, 19 },
//  { 1, 241.78062549269788, 19, 19 },
//  { 5, 237.72454446355093, 1502, 1503 },
//  { 7, 137.27512191341964, 26, 19 },
//  { 1, 242.50743143889468, 19, 19 },
//  { 1, 232.0721437400543, 1505, 1511 },
//  { 0, 106.07471248045317, 1506, 1509 },
//  { 3, 253.70632903916123, 1507, 1508 },
//  { 8, 96.93943992673394, 19, 19 },
//  { 11, 52.87398577941302, 19, 19 },
//  { 4, 108.36163178568782, 1510, 19 },
//  { 4, 106.57348553676786, 26, 19 },
//  { 7, 243.51454172353937, 19, 1512 },
//  { 10, 50.795232900322986, 1513, 1514 },
//  { 9, 244.30490968297465, 19, 19 },
//  { 0, 109.59134464785053, 19, 19 },
//  { 10, 117.73035248961781, 1516, 1526 },
//  { 6, 113.47714374329762, 1517, 1523 },
//  { 10, 74.00854449207361, 1518, 1521 },
//  { 10, 65.52642184939535, 1519, 1520 },
//  { 8, 107.64361270314251, 26, 19 },
//  { 10, 71.40800640611351, 19, 19 },
//  { 2, 191.4537364847277, 26, 1522 },
//  { 3, 253.23283218370418, 26, 26 },
//  { 5, 222.26013066166087, 1524, 26 },
//  { 11, 130.46620282273096, 1525, 19 },
//  { 10, 114.52574651666254, 26, 26 },
//  { 9, 224.09037774386368, 1527, 26 },
//  { 6, 124.65120589530618, 26, 1528 },
//  { 6, 137.13609910576423, 1529, 26 },
//  { 4, 161.90951665207257, 26, 26 },
//  { 3, 113.66014923092916, 1531, 1532 },
//  { 8, 124.23298225655824, 19, 26 },
//  { 10, 101.62346574227487, 1533, 1534 },
//  { 9, 186.96602347072493, 19, 26 },
//  { 10, 215.08184561649423, 1535, 26 },
//  { 8, 158.64105725644205, 1536, 1540 },
//  { 7, 170.6879301619194, 26, 1537 },
//  { 6, 146.44451147990512, 1538, 1539 },
//  { 9, 218.94831669607586, 26, 26 },
//  { 1, 110.67507054269085, 26, 26 },
//  { 9, 196.34347103878088, 1541, 1543 },
//  { 11, 189.72932620380507, 1542, 26 },
//  { 1, 111.02939947416512, 26, 26 },
//  { 11, 191.03642451252622, 1544, 26 },
//  { 11, 188.52085765242617, 26, 26 },
//  { 4, 37.90134447761874, 1546, 1607 },
//  { 4, 25.004996301142963, 1547, 1587 },
//  { 9, 46.27018362110024, 1548, 1571 },
//  { 0, 0.2662016592296779, 1549, 1564 },
//  { 10, 5.204358317053113, 1550, 1555 },
//  { 9, 10.558227390310833, 7, 1551 },
//  { 7, 0.5226125482109434, 1552, 7 },
//  { 8, 2.816246321804936, 7, 1553 },
//  { 8, 10.868917051176037, 7, 1554 },
//  { 6, 2.5204326890038478, 7, 7 },
//  { 3, 10.227994919860734, 1556, 19 },
//  { 6, 4.492414497534006, 1557, 1561 },
//  { 6, 2.5035407536213943, 1558, 1559 },
//  { 10, 8.374856569513145, 18, 7 },
//  { 11, 2.823702827945213, 1560, 7 },
//  { 5, 20.37361997197085, 7, 18 },
//  { 11, 2.5859687899174024, 7, 1562 },
//  { 5, 19.431475524525844, 1563, 7 },
//  { 8, 11.608288268841937, 7, 7 },
//  { 4, 15.938087727380026, 1565, 18 },
//  { 2, 4.87960408436116, 1566, 19 },
//  { 7, 35.43041601564289, 1567, 1570 },
//  { 9, 19.60093632228716, 7, 1568 },
//  { 6, 4.006465381014378, 7, 1569 },
//  { 6, 6.4210239194431455, 7, 7 },
//  { 10, 39.535755852952484, 18, 7 },
//  { 5, 59.60870620124447, 1572, 1581 },
//  { 9, 48.79781907321784, 1573, 1574 },
//  { 7, 5.6747288576675246, 7, 19 },
//  { 2, 10.512577717431158, 1575, 19 },
//  { 7, 83.31727026184893, 1576, 19 },
//  { 0, 14.97112543553632, 1577, 1580 },
//  { 4, 8.759680339954645, 1578, 1579 },
//  { 3, 15.937100602750247, 7, 18 },
//  { 5, 31.371553695933684, 7, 7 },
//  { 8, 21.15494102805617, 7, 18 },
//  { 7, 38.426106301334734, 1582, 19 },
//  { 11, 5.95288791225892, 7, 1583 },
//  { 0, 22.62230443657483, 1584, 18 },
//  { 9, 64.89253483242008, 18, 1585 },
//  { 9, 68.89951321152016, 18, 1586 },
//  { 0, 15.125592954515291, 7, 18 },
//  { 10, 19.93513568115194, 1588, 1603 },
//  { 0, 25.28360151186753, 1589, 1592 },
//  { 7, 60.66042170424965, 1590, 1591 },
//  { 11, 8.49796877126115, 7, 18 },
//  { 10, 18.93759611525461, 18, 19 },
//  { 7, 0.4556385341359482, 1593, 1601 },
//  { 1, 116.61317171510922, 1594, 1598 },
//  { 6, 15.982340901150527, 1595, 18 },
//  { 9, 87.4104056858506, 1596, 18 },
//  { 1, 85.68827779297172, 18, 1597 },
//  { 11, 10.988562657958159, 18, 18 },
//  { 8, 32.7499404599657, 7, 1599 },
//  { 0, 41.350740762590775, 1600, 18 },
//  { 0, 38.22080904209093, 18, 7 },
//  { 9, 97.13542958169032, 1602, 19 },
//  { 2, 14.02835506295243, 19, 7 },
//  { 9, 42.977322746989, 26, 1604 },
//  { 10, 32.7191264725845, 1605, 7 },
//  { 1, 60.24391295725662, 1606, 19 },
//  { 8, 47.530900012017646, 19, 26 },
//  { 11, 55.17100978976628, 1608, 1740 },
//  { 0, 71.11168228048444, 1609, 1690 },
//  { 4, 59.53505194817439, 1610, 1645 },
//  { 3, 101.75532052095761, 1611, 1632 },
//  { 9, 162.37336855771645, 1612, 1625 },
//  { 2, 8.745786528450337, 1613, 1619 },
//  { 11, 18.06132041246692, 1614, 1617 },
//  { 9, 139.417548776333, 1615, 1616 },
//  { 2, 0.34063254964567374, 18, 19 },
//  { 2, 3.9597698952815357, 18, 19 },
//  { 2, 2.0107359821026844, 1618, 19 },
//  { 3, 29.34328938477826, 18, 19 },
//  { 5, 131.2806232796426, 1620, 1623 },
//  { 1, 132.93495274564947, 1621, 1622 },
//  { 7, 41.15082220181395, 19, 19 },
//  { 3, 32.46342702045265, 7, 19 },
//  { 4, 54.31177690639709, 1624, 19 },
//  { 4, 50.22561792481021, 26, 19 },
//  { 3, 33.549258525273416, 1626, 19 },
//  { 7, 36.12283649208156, 1627, 1630 },
//  { 4, 54.98943079914405, 1628, 1629 },
//  { 10, 16.508146561453188, 18, 18 },
//  { 7, 17.23128221800145, 18, 19 },
//  { 8, 64.42123640767356, 1631, 19 },
//  { 7, 52.08915630406195, 19, 19 },
//  { 3, 174.20325021827745, 1633, 1642 },
//  { 6, 30.053220883967924, 1634, 1639 },
//  { 7, 129.21336625200388, 1635, 1637 },
//  { 9, 113.85221408114406, 19, 1636 },
//  { 6, 26.51027803938383, 19, 19 },
//  { 3, 146.59556570537183, 1638, 19 },
//  { 2, 156.07856627045132, 19, 19 },
//  { 0, 58.51951976284362, 1640, 19 },
//  { 1, 89.39728847350798, 1641, 19 },
//  { 8, 55.32328430671398, 19, 19 },
//  { 8, 63.724166976159516, 19, 1643 },
//  { 5, 98.90199906188157, 19, 1644 },
//  { 10, 56.24791888066005, 19, 26 },
//  { 7, 211.18675691037754, 1646, 1666 },
//  { 2, 115.38264145393978, 1647, 1658 },
//  { 7, 33.061046741465596, 1648, 1651 },
//  { 1, 198.66777185940546, 1649, 18 },
//  { 3, 7.9212866858212685, 1650, 19 },
//  { 7, 24.818351392083965, 18, 18 },
//  { 10, 88.26747104863983, 1652, 1655 },
//  { 3, 59.27492859739574, 1653, 1654 },
//  { 7, 42.04743226340386, 18, 19 },
//  { 11, 20.389284462849275, 19, 19 },
//  { 11, 25.385833039128144, 1656, 1657 },
//  { 5, 161.13460490532898, 26, 18 },
//  { 9, 157.7704661319826, 26, 18 },
//  { 0, 61.52455085866365, 1659, 1662 },
//  { 6, 45.16556394992655, 1660, 19 },
//  { 11, 39.5217563978032, 1661, 19 },
//  { 11, 19.4652321713349, 19, 19 },
//  { 10, 32.66844418489767, 19, 1663 },
//  { 6, 39.43573444589774, 1664, 1665 },
//  { 3, 209.1591563006673, 19, 19 },
//  { 9, 133.05166849962046, 19, 19 },
//  { 10, 49.33604073167594, 1667, 1677 },
//  { 8, 75.20070187896522, 1668, 1674 },
//  { 5, 147.05469935343353, 1669, 1671 },
//  { 2, 249.24399456253462, 19, 1670 },
//  { 1, 137.7338765457896, 19, 19 },
//  { 6, 41.037530115357384, 1672, 1673 },
//  { 8, 69.43625686943356, 19, 19 },
//  { 4, 73.23626611346205, 19, 26 },
//  { 6, 43.10179271088065, 1675, 26 },
//  { 4, 68.2075803536957, 1676, 19 },
//  { 7, 252.45362010013946, 19, 26 },
//  { 1, 134.97122534828782, 1678, 1683 },
//  { 10, 57.30764210797271, 1679, 1681 },
//  { 1, 111.4153850802292, 1680, 19 },
//  { 5, 106.04650107959588, 19, 19 },
//  { 11, 38.17627538329748, 26, 1682 },
//  { 6, 56.14515178657377, 19, 26 },
//  { 10, 62.5869216083488, 1684, 1687 },
//  { 8, 80.7250396608026, 1685, 1686 },
//  { 4, 71.04366824964232, 19, 19 },
//  { 1, 141.12433365225993, 19, 19 },
//  { 9, 151.75341186288438, 1688, 1689 },
//  { 2, 252.4263452377293, 19, 26 },
//  { 10, 69.5951970939502, 19, 19 },
//  { 3, 191.64032033441603, 1691, 1708 },
//  { 10, 25.110094407624608, 1692, 1694 },
//  { 8, 68.36791456181925, 18, 1693 },
//  { 4, 68.27570208966532, 18, 19 },
//  { 8, 116.1947589284716, 1695, 26 },
//  { 5, 200.1850294769672, 1696, 1701 },
//  { 2, 16.5257205085483, 1697, 1699 },
//  { 8, 92.43715339779722, 1698, 26 },
//  { 4, 73.1781372209909, 18, 19 },
//  { 11, 39.03023396806337, 19, 1700 },
//  { 8, 80.22416844508805, 19, 19 },
//  { 9, 217.747482567908, 1702, 1705 },
//  { 6, 39.345645357549955, 1703, 1704 },
//  { 10, 36.837302965501934, 19, 19 },
//  { 7, 123.4788905412326, 19, 19 },
//  { 7, 84.87725009297824, 1706, 1707 },
//  { 8, 86.31817813325588, 19, 19 },
//  { 8, 106.84528613176442, 19, 26 },
//  { 8, 116.68888580831182, 1709, 1732 },
//  { 9, 180.38327968510953, 1710, 1718 },
//  { 0, 88.8577779731051, 1711, 19 },
//  { 3, 216.65130419407566, 1712, 1715 },
//  { 2, 226.24185993813066, 1713, 1714 },
//  { 10, 55.18673844085389, 19, 19 },
//  { 10, 64.6065365432792, 19, 19 },
//  { 0, 77.29606903171916, 1716, 1717 },
//  { 10, 68.88986601675388, 19, 19 },
//  { 6, 72.33311021157219, 19, 19 },
//  { 10, 62.040971228406285, 1719, 1725 },
//  { 8, 95.56983005421694, 1720, 1722 },
//  { 3, 217.9537676144176, 19, 1721 },
//  { 6, 48.29631946715355, 19, 19 },
//  { 9, 241.4362694329751, 1723, 1724 },
//  { 0, 97.6747760705998, 19, 19 },
//  { 2, 222.51488966611907, 19, 19 },
//  { 7, 246.58779440475058, 1726, 1729 },
//  { 4, 91.89374497667595, 1727, 1728 },
//  { 11, 39.62801362137684, 19, 26 },
//  { 7, 204.87089662154713, 19, 19 },
//  { 5, 208.47427812427017, 1730, 1731 },
//  { 9, 206.7611825078545, 19, 26 },
//  { 6, 57.08152058258723, 19, 26 },
//  { 7, 193.824005198583, 19, 1733 },
//  { 10, 91.31914156317671, 1734, 19 },
//  { 9, 218.0806798758361, 1735, 1738 },
//  { 7, 200.45140349234055, 1736, 1737 },
//  { 11, 52.733274159828795, 19, 26 },
//  { 10, 81.22781975391685, 19, 26 },
//  { 2, 234.42256373745508, 19, 1739 },
//  { 2, 253.62248300976236, 26, 26 },
//  { 8, 195.9003164344003, 1741, 26 },
//  { 4, 89.12304461054646, 1742, 1759 },
//  { 6, 45.37413426133531, 18, 1743 },
//  { 7, 205.60132846217664, 1744, 1750 },
//  { 6, 58.75913043262396, 19, 1745 },
//  { 7, 194.20516055971623, 1746, 1748 },
//  { 2, 247.13150819536835, 1747, 19 },
//  { 6, 59.100874697836524, 26, 19 },
//  { 2, 223.80276518492155, 26, 1749 },
//  { 11, 64.91392438994438, 19, 19 },
//  { 2, 250.236657489667, 1751, 1752 },
//  { 7, 228.89428233629758, 19, 26 },
//  { 7, 252.53236825975233, 1753, 1756 },
//  { 5, 100.18262607659335, 1754, 1755 },
//  { 11, 66.92826802745847, 26, 26 },
//  { 10, 84.93105241513393, 19, 26 },
//  { 10, 56.06719961113632, 1757, 1758 },
//  { 5, 142.50479086465424, 19, 19 },
//  { 10, 74.8507064244946, 19, 26 },
//  { 2, 243.2972956822707, 1760, 1776 },
//  { 11, 75.84505127595973, 1761, 1769 },
//  { 4, 114.8855725079242, 1762, 1767 },
//  { 2, 204.63212394790358, 1763, 1765 },
//  { 4, 111.84249038195354, 1764, 26 },
//  { 10, 54.60557541046551, 19, 19 },
//  { 10, 65.7708249715021, 1766, 26 },
//  { 7, 167.22950816863658, 19, 19 },
//  { 10, 73.88033809833244, 1768, 26 },
//  { 3, 203.86264100012494, 19, 26 },
//  { 6, 75.8470879731919, 19, 1770 },
//  { 9, 134.65834454524253, 1771, 1773 },
//  { 5, 129.07307169822653, 26, 1772 },
//  { 9, 132.95010833812418, 18, 26 },
//  { 3, 185.68676419820952, 1774, 1775 },
//  { 5, 147.10609161951862, 26, 26 },
//  { 11, 145.06755168552863, 26, 26 },
//  { 1, 156.91954237498322, 1777, 1786 },
//  { 0, 165.97221363986478, 1778, 1784 },
//  { 4, 149.6966811137724, 1779, 1782 },
//  { 8, 92.63294141815646, 1780, 1781 },
//  { 9, 101.88542557083323, 26, 19 },
//  { 8, 102.7213563698909, 26, 26 },
//  { 2, 251.46778558868345, 1783, 26 },
//  { 10, 166.0246941037591, 26, 26 },
//  { 4, 147.75007585936694, 1785, 26 },
//  { 4, 121.23625966125925, 19, 26 },
//  { 4, 159.59835095778033, 1787, 1793 },
//  { 4, 144.4526361881069, 1788, 1791 },
//  { 1, 235.3934997051924, 1789, 1790 },
//  { 4, 124.7983580645166, 26, 26 },
//  { 10, 70.18076806477308, 19, 19 },
//  { 11, 99.58132327747593, 26, 1792 },
//  { 5, 233.260448929975, 26, 26 },
//  { 8, 148.94025178344, 1794, 1796 },
//  { 7, 241.6528628262006, 26, 1795 },
//  { 10, 114.1323151169961, 26, 19 },
//  { 6, 147.04670128694116, 26, 1797 },
//  { 8, 191.82854272650022, 26, 26 },
//  { 7, 0.2898060941555566, 1799, 1858 },
//  { 6, 21.336815194849304, 1800, 18 },
//  { 0, 35.944563578788454, 1801, 1835 },
//  { 6, 5.716116371432373, 1802, 1817 },
//  { 9, 54.948095933975694, 1803, 1816 },
//  { 10, 3.403895753623869, 1804, 1808 },
//  { 1, 46.66897796404966, 7, 1805 },
//  { 1, 49.374357801570724, 1806, 7 },
//  { 8, 11.953277453292756, 7, 1807 },
//  { 10, 0.6055588590007084, 7, 7 },
//  { 5, 14.731292014350785, 1809, 1812 },
//  { 10, 6.8098311544441765, 7, 1810 },
//  { 6, 3.0260487641329172, 18, 1811 },
//  { 4, 3.4162292691954548, 7, 7 },
//  { 5, 23.225690363080098, 1813, 7 },
//  { 5, 19.16436975922639, 1814, 1815 },
//  { 4, 5.7450750701805, 7, 7 },
//  { 11, 2.2601699252893077, 18, 7 },
//  { 11, 2.1937654023961004, 7, 18 },
//  { 4, 29.7747240093419, 1818, 1830 },
//  { 11, 7.557772744241065, 1819, 1823 },
//  { 9, 83.66249614193221, 1820, 7 },
//  { 0, 5.058269493774636, 1821, 18 },
//  { 8, 13.845400174542052, 1822, 7 },
//  { 5, 13.085660443681133, 7, 7 },
//  { 11, 9.518035014866868, 1824, 1827 },
//  { 5, 53.14911484911531, 7, 1825 },
//  { 11, 8.054518071494307, 1826, 18 },
//  { 1, 63.8544892132536, 18, 7 },
//  { 0, 22.719950200859437, 1828, 18 },
//  { 10, 12.687321802921279, 1829, 18 },
//  { 8, 23.18624556632072, 18, 7 },
//  { 1, 109.9168960353904, 1831, 18 },
//  { 4, 32.084797817787525, 1832, 18 },
//  { 5, 86.97316885132956, 18, 1833 },
//  { 4, 31.820255672475444, 1834, 18 },
//  { 8, 28.652307931637534, 7, 18 },
//  { 4, 52.21767876586769, 1836, 1856 },
//  { 5, 97.8161318967194, 1837, 1840 },
//  { 6, 14.839310990571654, 1838, 1839 },
//  { 4, 34.970156562035044, 18, 7 },
//  { 5, 85.79986088946455, 7, 18 },
//  { 6, 14.753873610288778, 1841, 1849 },
//  { 1, 123.19921913426333, 1842, 1845 },
//  { 10, 13.245468130449517, 1843, 18 },
//  { 4, 37.035888535918616, 1844, 18 },
//  { 0, 37.01807474811472, 18, 7 },
//  { 0, 45.4266127959949, 18, 1846 },
//  { 8, 37.69842959507295, 1847, 1848 },
//  { 4, 41.507785135185244, 7, 18 },
//  { 10, 11.356594134288185, 18, 18 },
//  { 1, 151.5057607993976, 1850, 1853 },
//  { 8, 42.02765635635129, 18, 1851 },
//  { 4, 45.50786627526762, 18, 1852 },
//  { 5, 142.5790975436471, 18, 18 },
//  { 6, 15.56663243871491, 18, 1854 },
//  { 6, 17.634805234444702, 1855, 18 },
//  { 9, 144.1551191877365, 7, 18 },
//  { 5, 161.58515321583727, 1857, 18 },
//  { 0, 61.414513013052996, 18, 19 },
//  { 11, 177.1511375266831, 1859, 1993 },
//  { 7, 77.97689989068401, 1860, 1894 },
//  { 8, 28.444184826428156, 1861, 1868 },
//  { 2, 3.6926870158373784, 1862, 19 },
//  { 3, 18.55459824137138, 1863, 1867 },
//  { 9, 41.28857829016101, 1864, 1865 },
//  { 3, 0.3786838745599072, 7, 19 },
//  { 5, 44.5163017946837, 1866, 7 },
//  { 3, 8.958310944940107, 7, 26 },
//  { 4, 8.93801116987039, 18, 19 },
//  { 6, 58.68761612506938, 1869, 1885 },
//  { 8, 79.1911865604069, 1870, 1878 },
//  { 11, 9.598031334391809, 1871, 1874 },
//  { 9, 82.48285983106254, 1872, 19 },
//  { 9, 40.917504194154176, 18, 1873 },
//  { 7, 65.88203464116995, 7, 7 },
//  { 0, 11.969919299692808, 7, 1875 },
//  { 6, 17.64151589695435, 1876, 1877 },
//  { 10, 17.56351481730282, 18, 19 },
//  { 8, 64.5440734352656, 19, 19 },
//  { 0, 42.73367291210856, 26, 1879 },
//  { 7, 38.319002672712784, 1880, 1882 },
//  { 5, 159.17009890879044, 18, 1881 },
//  { 3, 2.5387388498237073, 18, 18 },
//  { 8, 80.58235452910064, 1883, 1884 },
//  { 10, 32.64759933606144, 19, 19 },
//  { 10, 59.365559895693124, 19, 26 },
//  { 3, 45.149513318273016, 1886, 1892 },
//  { 8, 104.25604891183602, 1887, 1888 },
//  { 5, 149.39580865967824, 26, 19 },
//  { 4, 123.68301744418359, 1889, 26 },
//  { 3, 21.226103242126342, 1890, 1891 },
//  { 5, 206.51337228832458, 18, 26 },
//  { 3, 41.880985415950875, 26, 26 },
//  { 0, 120.638381272386, 1893, 19 },
//  { 2, 1.546635229395067, 19, 26 },
//  { 11, 60.17332569657514, 1895, 1941 },
//  { 2, 233.13046397554245, 1896, 1919 },
//  { 9, 220.06954175795872, 1897, 1911 },
//  { 6, 54.22001964935102, 1898, 1905 },
//  { 9, 173.68569423429932, 1899, 1902 },
//  { 6, 12.669555942839736, 1900, 1901 },
//  { 8, 43.90041925939751, 19, 18 },
//  { 10, 42.9076929902228, 19, 19 },
//  { 8, 72.92443031674458, 1903, 1904 },
//  { 7, 83.06079759125635, 19, 19 },
//  { 8, 88.60387520101102, 19, 19 },
//  { 9, 139.703903282389, 1906, 1908 },
//  { 11, 43.206644390340266, 26, 1907 },
//  { 9, 109.98343957633871, 19, 26 },
//  { 8, 99.60903240442697, 1909, 1910 },
//  { 7, 159.35560416819322, 19, 26 },
//  { 4, 106.16655726878278, 26, 18 },
//  { 9, 246.31027793712462, 1912, 1916 },
//  { 3, 156.54725071487354, 1913, 1914 },
//  { 5, 212.52262555459637, 18, 19 },
//  { 10, 43.68597844042162, 19, 1915 },
//  { 1, 236.410763696493, 19, 19 },
//  { 3, 202.1912759748247, 19, 1917 },
//  { 1, 241.68629751107017, 26, 1918 },
//  { 7, 201.4948670945572, 19, 19 },
//  { 4, 67.41427639332333, 1920, 1930 },
//  { 0, 65.71873490964936, 1921, 1926 },
//  { 10, 45.78932921066384, 1922, 1924 },
//  { 6, 34.22850654331432, 1923, 19 },
//  { 3, 182.00843380252292, 19, 19 },
//  { 3, 206.90191436228432, 19, 1925 },
//  { 5, 119.59235791237668, 19, 19 },
//  { 9, 155.5947829394577, 1927, 1929 },
//  { 1, 111.067196002727, 1928, 19 },
//  { 1, 96.57822159611537, 19, 19 },
//  { 10, 35.0655598943427, 19, 26 },
//  { 6, 39.41619048426682, 1931, 1934 },
//  { 7, 195.66152878741804, 1932, 19 },
//  { 9, 185.32827142967295, 19, 1933 },
//  { 3, 191.2255777214773, 19, 19 },
//  { 11, 43.43830235462556, 1935, 1938 },
//  { 7, 212.38540312106971, 1936, 1937 },
//  { 9, 174.48432979243077, 19, 19 },
//  { 1, 174.2749661250389, 19, 19 },
//  { 6, 67.89284156397584, 1939, 1940 },
//  { 9, 235.03602008988895, 19, 19 },
//  { 1, 186.50646180264022, 19, 26 },
//  { 0, 118.27830957122069, 1942, 1968 },
//  { 1, 153.45807865749023, 1943, 1954 },
//  { 11, 86.26210990048112, 1944, 1950 },
//  { 10, 99.81550852619833, 1945, 1948 },
//  { 6, 70.02795405174976, 1946, 1947 },
//  { 6, 62.98653268673761, 19, 19 },
//  { 9, 92.1996811526826, 19, 26 },
//  { 6, 105.71396872248219, 1949, 26 },
//  { 10, 102.28194057721736, 26, 26 },
//  { 2, 173.58970678951113, 26, 1951 },
//  { 7, 230.56424280887666, 1952, 1953 },
//  { 10, 97.46733976829208, 26, 26 },
//  { 4, 105.05512822841067, 26, 26 },
//  { 11, 71.41065217480559, 1955, 1961 },
//  { 7, 219.24622504284895, 1956, 1959 },
//  { 6, 76.31134434757351, 1957, 1958 },
//  { 1, 226.89771096962397, 26, 19 },
//  { 6, 83.90603513592204, 26, 19 },
//  { 2, 251.06025206766103, 19, 1960 },
//  { 8, 112.94774781723868, 19, 19 },
//  { 10, 84.26265390043271, 1962, 1965 },
//  { 11, 72.89740751632368, 1963, 1964 },
//  { 2, 252.9093061885374, 26, 26 },
//  { 7, 214.2465704084591, 26, 19 },
//  { 5, 196.16615227198514, 1966, 1967 },
//  { 9, 156.53810078116976, 26, 26 },
//  { 6, 76.51648535230964, 26, 26 },
//  { 4, 145.1293939329355, 1969, 1983 },
//  { 6, 81.67399917481188, 1970, 1976 },
//  { 1, 238.52202788066214, 1971, 1974 },
//  { 0, 123.15061817464913, 1972, 1973 },
//  { 8, 117.06754212363974, 19, 26 },
//  { 10, 66.7351111284155, 19, 26 },
//  { 4, 119.16343205057244, 19, 1975 },
//  { 2, 249.5760119476244, 26, 19 },
//  { 8, 135.6892269438548, 1977, 1980 },
//  { 9, 220.27876397887186, 1978, 1979 },
//  { 6, 108.76090689318298, 26, 26 },
//  { 9, 238.9697906682127, 26, 26 },
//  { 6, 95.44933472082454, 1981, 1982 },
//  { 6, 94.61091444669799, 26, 26 },
//  { 10, 111.27066124010396, 26, 26 },
//  { 4, 163.83187253113456, 1984, 1990 },
//  { 4, 148.62525066296814, 1985, 1988 },
//  { 4, 146.71478578947242, 1986, 1987 },
//  { 6, 122.22481714665183, 26, 26 },
//  { 4, 147.33266322889023, 26, 26 },
//  { 7, 155.23206668590757, 26, 1989 },
//  { 1, 163.06831813932786, 26, 26 },
//  { 0, 160.0769336987645, 26, 1991 },
//  { 8, 166.44110982745937, 1992, 26 },
//  { 8, 149.5965515103175, 19, 26 },
//  { 8, 171.66581525079243, 1994, 2001 },
//  { 7, 182.2786041648493, 1995, 26 },
//  { 11, 185.05737788325985, 26, 1996 },
//  { 0, 187.38028335263036, 26, 1997 },
//  { 6, 164.44327966191028, 1998, 26 },
//  { 8, 141.92758375542593, 1999, 26 },
//  { 10, 111.55893922483499, 2000, 26 },
//  { 1, 209.87866311933783, 19, 19 },
//  { 1, 169.9972236654708, 26, 2002 },
//  { 6, 173.27121715260262, 2003, 26 },
//  { 5, 233.62858198239869, 2004, 26 },
//  { 8, 181.41162009137292, 2005, 26 },
//  { 4, 189.5638121601957, 26, 2006 },
//  { 5, 223.9568898584493, 2007, 26 },
//  { 8, 180.06386941394948, 26, 26 },
//  { 4, 34.51036510966269, 2009, 2060 },
//  { 1, 46.191991481088095, 2010, 2039 },
//  { 10, 30.566491667910707, 2011, 2033 },
//  { 8, 0.5881456698235803, 7, 2012 },
//  { 0, 3.5368751043159863, 2013, 2027 },
//  { 8, 12.345172231711993, 2014, 2018 },
//  { 1, 4.437483029643764, 2015, 7 },
//  { 4, 0.7317153665850477, 7, 2016 },
//  { 0, 1.789127990505252, 2017, 7 },
//  { 0, 0.19035509796364006, 7, 7 },
//  { 3, 4.732732428579001, 2019, 2024 },
//  { 9, 39.495338632955836, 2020, 2022 },
//  { 0, 1.912058610428152, 7, 2021 },
//  { 10, 15.95921145750173, 18, 7 },
//  { 1, 5.891183910840742, 2023, 7 },
//  { 4, 13.109657398010444, 7, 7 },
//  { 6, 2.2309139586197744, 26, 2025 },
//  { 7, 89.78763592885232, 2026, 19 },
//  { 11, 2.768067885547908, 19, 19 },
//  { 2, 9.268043623896336, 2028, 19 },
//  { 0, 10.528068945989045, 7, 2029 },
//  { 8, 12.365478797520268, 7, 2030 },
//  { 9, 60.54884831074106, 2031, 2032 },
//  { 6, 8.440147812217543, 18, 7 },
//  { 10, 8.275050132197817, 18, 7 },
//  { 3, 27.054281200773215, 2034, 7 },
//  { 10, 43.39096373570662, 2035, 7 },
//  { 6, 8.083832396233376, 2036, 7 },
//  { 11, 5.4237582569121185, 2037, 7 },
//  { 9, 45.8419499876173, 2038, 18 },
//  { 7, 38.83415796646576, 18, 7 },
//  { 6, 5.800592492241688, 2040, 2046 },
//  { 1, 47.483591998221165, 7, 2041 },
//  { 8, 11.862258545524561, 7, 2042 },
//  { 11, 0.9851997736772521, 7, 2043 },
//  { 9, 49.61554833297411, 7, 2044 },
//  { 5, 49.67986649259919, 7, 2045 },
//  { 6, 0.6257412976705196, 7, 7 },
//  { 3, 92.35294690325527, 2047, 19 },
//  { 11, 12.044205726610592, 2048, 2055 },
//  { 2, 10.230351424883283, 2049, 19 },
//  { 5, 67.31271011629734, 18, 2050 },
//  { 11, 8.045507712310883, 2051, 2053 },
//  { 11, 7.895405967671148, 7, 2052 },
//  { 10, 9.133486315204523, 7, 18 },
//  { 11, 9.060154425473955, 18, 2054 },
//  { 11, 11.05183482312217, 18, 18 },
//  { 8, 29.630153748965895, 18, 2056 },
//  { 4, 32.38365421927704, 2057, 2058 },
//  { 11, 16.373276122553868, 19, 7 },
//  { 9, 93.00251505104941, 2059, 19 },
//  { 3, 7.970422623665269, 18, 19 },
//  { 10, 119.5999114646576, 2061, 2170 },
//  { 6, 15.698938443650928, 2062, 2093 },
//  { 7, 15.769517704737147, 2063, 2079 },
//  { 9, 132.14626360691443, 2064, 2074 },
//  { 6, 14.732673697980434, 2065, 18 },
//  { 0, 48.0410138014895, 2066, 2069 },
//  { 9, 109.80935688028548, 2067, 18 },
//  { 1, 105.38730854838495, 18, 2068 },
//  { 8, 33.8969731172067, 7, 18 },
//  { 9, 121.27969657223657, 2070, 2072 },
//  { 4, 38.80469034416819, 7, 2071 },
//  { 5, 123.91371426587632, 7, 18 },
//  { 10, 12.262511629267834, 2073, 18 },
//  { 9, 124.4658338932627, 7, 18 },
//  { 7, 4.937124878604489, 2075, 18 },
//  { 9, 159.99990432430053, 18, 2076 },
//  { 0, 56.76250838663546, 2077, 18 },
//  { 11, 15.20757629452626, 18, 2078 },
//  { 7, 2.916196240073161, 18, 19 },
//  { 1, 147.35357108542397, 2080, 2089 },
//  { 8, 51.12876216654142, 2081, 2086 },
//  { 8, 48.12533254321913, 2082, 2084 },
//  { 4, 41.4422208990167, 2083, 26 },
//  { 5, 108.4858703624857, 19, 18 },
//  { 3, 5.097096341241661, 18, 2085 },
//  { 0, 9.656649735130673, 18, 19 },
//  { 4, 49.19943852219704, 2087, 26 },
//  { 11, 17.565471951181756, 19, 2088 },
//  { 9, 151.25581251096716, 19, 18 },
//  { 8, 51.24222538631513, 18, 2090 },
//  { 5, 153.61070421226822, 2091, 2092 },
//  { 8, 54.29095742492515, 19, 18 },
//  { 11, 15.044010960983117, 18, 19 },
//  { 7, 202.24744702048946, 2094, 2139 },
//  { 5, 211.90649159387988, 2095, 2124 },
//  { 10, 49.2043233654482, 2096, 2110 },
//  { 10, 27.754146811903524, 2097, 2104 },
//  { 9, 108.89776015137218, 2098, 2101 },
//  { 8, 40.82077961499839, 2099, 2100 },
//  { 6, 17.18212355076434, 18, 7 },
//  { 3, 10.800311211869266, 18, 19 },
//  { 8, 71.14080834581554, 2102, 2103 },
//  { 7, 82.01425158698775, 18, 19 },
//  { 8, 72.78640992184468, 18, 19 },
//  { 3, 59.655062156568775, 2105, 2107 },
//  { 10, 44.090738447425295, 2106, 26 },
//  { 4, 68.95535593291528, 19, 19 },
//  { 3, 186.99944128701438, 2108, 2109 },
//  { 8, 72.29706530659323, 19, 19 },
//  { 5, 142.39556205570491, 19, 19 },
//  { 10, 73.37786325317708, 2111, 2117 },
//  { 10, 60.577991679114284, 2112, 2114 },
//  { 7, 185.17124785304594, 2113, 19 },
//  { 6, 39.44169365495522, 19, 19 },
//  { 5, 88.11392141185418, 2115, 2116 },
//  { 1, 51.98976411483705, 26, 19 },
//  { 2, 140.69848688444984, 19, 19 },
//  { 0, 84.22002303750256, 2118, 2121 },
//  { 1, 122.03076415091323, 2119, 2120 },
//  { 7, 188.24856524832944, 26, 19 },
//  { 11, 40.94196424351165, 26, 19 },
//  { 7, 173.92912703935482, 2122, 2123 },
//  { 9, 176.11212988715252, 26, 26 },
//  { 2, 216.5177011143033, 26, 26 },
//  { 4, 142.428580132047, 2125, 2137 },
//  { 10, 52.50473910221119, 2126, 2131 },
//  { 11, 25.59809741126285, 2127, 2128 },
//  { 9, 222.6002091814765, 19, 18 },
//  { 3, 56.4581237078915, 2129, 2130 },
//  { 11, 30.53090589052574, 18, 19 },
//  { 6, 51.981069087042044, 19, 19 },
//  { 9, 218.93615388867266, 2132, 2135 },
//  { 11, 52.635966763662154, 2133, 2134 },
//  { 4, 111.8695519090954, 19, 19 },
//  { 2, 48.25411170080961, 26, 26 },
//  { 8, 127.74630020779851, 2136, 26 },
//  { 9, 234.95124860990384, 19, 19 },
//  { 7, 186.00968666561397, 26, 2138 },
//  { 10, 106.88402635785008, 19, 26 },
//  { 11, 37.09008511113473, 2140, 2144 },
//  { 5, 215.81417542081988, 2141, 19 },
//  { 10, 41.02912455519155, 19, 2142 },
//  { 0, 65.47282989810819, 19, 2143 },
//  { 4, 69.14653358196213, 19, 26 },
//  { 3, 205.29036828330268, 2145, 2155 },
//  { 2, 203.904331568584, 2146, 2149 },
//  { 11, 47.88851609681198, 19, 2147 },
//  { 8, 80.86452950624029, 19, 2148 },
//  { 6, 58.346832931668885, 19, 26 },
//  { 10, 59.476527322305614, 2150, 2153 },
//  { 4, 104.8706303759807, 2151, 2152 },
//  { 3, 204.50051993620608, 19, 19 },
//  { 6, 55.07998188821598, 26, 19 },
//  { 4, 110.30575896580972, 2154, 26 },
//  { 8, 92.94998934350441, 26, 19 },
//  { 5, 226.90524569382205, 2156, 2163 },
//  { 8, 99.99576378380682, 2157, 2160 },
//  { 5, 139.5575372360449, 2158, 2159 },
//  { 6, 89.58448464450635, 19, 26 },
//  { 5, 209.96206389179548, 19, 19 },
//  { 8, 139.36311005678172, 2161, 2162 },
//  { 11, 50.447541472710455, 19, 26 },
//  { 6, 126.00846907776244, 26, 26 },
//  { 4, 100.04300809374219, 2164, 2167 },
//  { 11, 46.502367972630246, 2165, 2166 },
//  { 1, 238.6636109043209, 19, 19 },
//  { 8, 100.56435419598797, 19, 19 },
//  { 5, 238.25607964268704, 2168, 2169 },
//  { 1, 235.9615791272193, 26, 19 },
//  { 9, 243.39110352117154, 19, 19 },
//  { 11, 195.2262350037816, 2171, 26 },
//  { 4, 163.01303420169887, 2172, 2182 },
//  { 4, 136.27338140051504, 26, 2173 },
//  { 1, 159.81506718314023, 2174, 2178 },
//  { 9, 145.42674988202134, 26, 2175 },
//  { 10, 149.29396887975463, 2176, 26 },
//  { 4, 153.9351475997526, 2177, 26 },
//  { 0, 159.3078915375787, 26, 26 },
//  { 8, 163.3112471896742, 2179, 26 },
//  { 5, 165.00765181566013, 26, 2180 },
//  { 6, 133.53371873848778, 2181, 26 },
//  { 5, 214.1393224588313, 26, 26 },
//  { 10, 169.0040454957653, 2183, 26 },
//  { 1, 144.4887399745587, 26, 2184 },
//  { 7, 213.63051336846803, 26, 2185 },
//  { 3, 251.82060316476068, 2186, 2188 },
//  { 5, 194.25063653534772, 2187, 26 },
//  { 3, 249.6814184573858, 26, 26 },
//  { 4, 183.0520686223414, 26, 2189 },
//  { 9, 229.7211968920758, 26, 26 },
//  { 5, 14.26801624673792, 2191, 2204 },
//  { 7, 7.751765373978655, 2192, 2199 },
//  { 4, 2.7645663175566897, 2193, 7 },
//  { 8, 13.322977961657093, 2194, 2198 },
//  { 6, 2.748926367959439, 7, 2195 },
//  { 9, 2.6673959780798273, 7, 2196 },
//  { 6, 4.367649180985824, 7, 2197 },
//  { 6, 5.952950046841497, 18, 7 },
//  { 9, 45.4135686892148, 18, 7 },
//  { 8, 53.950616053748234, 2200, 26 },
//  { 10, 38.8667660829922, 2201, 7 },
//  { 9, 29.86457730963108, 7, 2202 },
//  { 9, 37.52986136476037, 2203, 7 },
//  { 4, 3.234968149678301, 7, 18 },
//  { 7, 137.59460122678178, 2205, 2301 },
//  { 5, 165.6679269679207, 2206, 2246 },
//  { 9, 70.52066671034352, 2207, 2218 },
//  { 4, 33.57508092959182, 2208, 2216 },
//  { 3, 67.41439018371254, 2209, 19 },
//  { 3, 5.182476111307031, 2210, 2213 },
//  { 0, 22.454832518685066, 2211, 18 },
//  { 0, 19.265321335413176, 2212, 18 },
//  { 1, 26.517456270063974, 7, 7 },
//  { 4, 13.011770903138338, 2214, 7 },
//  { 10, 29.936594106693097, 2215, 7 },
//  { 10, 9.723180216142525, 19, 19 },
//  { 6, 78.05980228821738, 2217, 26 },
//  { 6, 38.38696523587544, 7, 26 },
//  { 7, 60.47671393327262, 2219, 2235 },
//  { 6, 54.37772028864255, 2220, 26 },
//  { 0, 54.35092023636723, 2221, 2228 },
//  { 7, 2.603858617415586, 2222, 2225 },
//  { 1, 82.98841302655097, 2223, 2224 },
//  { 4, 24.673404167254176, 7, 18 },
//  { 8, 33.57225060862128, 18, 18 },
//  { 9, 123.29622622732828, 2226, 2227 },
//  { 3, 16.182840511287953, 19, 19 },
//  { 1, 145.57192775494042, 19, 19 },
//  { 6, 23.649084777873515, 2229, 2232 },
//  { 6, 11.894836152389104, 2230, 2231 },
//  { 10, 10.697398958586808, 7, 18 },
//  { 10, 14.597218491415129, 18, 18 },
//  { 1, 151.5298691217461, 2233, 2234 },
//  { 11, 32.01627711673094, 18, 19 },
//  { 3, 13.235282426343897, 18, 19 },
//  { 6, 144.42135475548977, 2236, 26 },
//  { 10, 59.99595744581705, 2237, 2242 },
//  { 5, 65.01274214313028, 2238, 2239 },
//  { 6, 10.36900052259164, 18, 19 },
//  { 11, 24.186698305507516, 2240, 2241 },
//  { 0, 30.606134420077378, 19, 19 },
//  { 2, 84.88991428999692, 19, 19 },
//  { 0, 43.701262581023045, 26, 2243 },
//  { 6, 73.19431366827074, 2244, 2245 },
//  { 5, 137.42193881535061, 26, 19 },
//  { 4, 123.39744786703841, 26, 26 },
//  { 7, 50.67957258488963, 2247, 2268 },
//  { 9, 206.07738371988637, 2248, 2261 },
//  { 8, 58.460608913312015, 2249, 2253 },
//  { 6, 19.759785367064076, 2250, 18 },
//  { 0, 58.9517471273205, 2251, 18 },
//  { 9, 182.432706363235, 2252, 18 },
//  { 1, 166.41206386285464, 18, 18 },
//  { 4, 76.5399322665948, 2254, 2258 },
//  { 2, 48.12025806080562, 2255, 19 },
//  { 4, 68.79496760423993, 2256, 2257 },
//  { 11, 20.343365772321526, 18, 18 },
//  { 11, 19.149580988171316, 19, 18 },
//  { 11, 80.353328460992, 2259, 19 },
//  { 0, 64.0930083860145, 2260, 26 },
//  { 1, 168.66756329344005, 19, 26 },
//  { 8, 110.56018078725793, 2262, 26 },
//  { 8, 80.64107357274791, 2263, 19 },
//  { 3, 13.60251869708417, 2264, 2266 },
//  { 3, 4.693007862983741, 18, 2265 },
//  { 7, 45.62929108535372, 19, 19 },
//  { 0, 66.96625788415142, 19, 2267 },
//  { 9, 209.9909370825584, 19, 18 },
//  { 3, 58.40528030339874, 2269, 2287 },
//  { 8, 119.82896494438359, 2270, 2280 },
//  { 6, 22.70229191505457, 2271, 2276 },
//  { 10, 29.695763779196778, 2272, 2275 },
//  { 3, 24.66642221001276, 2273, 2274 },
//  { 0, 67.76412756869762, 19, 18 },
//  { 2, 4.727289254184481, 19, 19 },
//  { 4, 67.42455766928595, 26, 19 },
//  { 10, 61.432126858938545, 2277, 26 },
//  { 2, 2.0640378166288316, 2278, 2279 },
//  { 2, 0.9865800659109746, 19, 19 },
//  { 11, 28.174560135311708, 19, 19 },
//  { 4, 122.65120596562103, 2281, 2284 },
//  { 8, 121.96144861772724, 18, 2282 },
//  { 4, 109.28487589409802, 2283, 26 },
//  { 7, 52.59782173512402, 18, 26 },
//  { 4, 135.74087522725614, 2285, 26 },
//  { 0, 95.51915109321436, 26, 2286 },
//  { 10, 102.87297151650907, 19, 26 },
//  { 6, 120.19843605030255, 2288, 2298 },
//  { 8, 123.84503718598049, 2289, 2296 },
//  { 3, 127.93563566447033, 2290, 2293 },
//  { 4, 69.5670949730869, 2291, 2292 },
//  { 10, 29.341015454540504, 19, 19 },
//  { 1, 209.30956503716743, 19, 19 },
//  { 4, 89.22369339653463, 2294, 2295 },
//  { 6, 36.97479555335585, 19, 19 },
//  { 4, 90.0748017356148, 19, 19 },
//  { 4, 130.62551959726284, 2297, 26 },
//  { 9, 191.86428479238612, 18, 26 },
//  { 9, 215.8437960067968, 2299, 26 },
//  { 7, 89.88538134558377, 2300, 26 },
//  { 10, 126.79095327378761, 19, 26 },
//  { 0, 207.40992657114282, 2302, 26 },
//  { 10, 111.38103697792675, 2303, 2342 },
//  { 4, 133.7956763784381, 2304, 2330 },
//  { 10, 82.20231084767838, 2305, 2320 },
//  { 9, 174.120824211799, 2306, 2313 },
//  { 6, 45.20853985203828, 2307, 2310 },
//  { 8, 78.61980794073074, 2308, 2309 },
//  { 7, 240.0132500203388, 19, 19 },
//  { 9, 150.88279271818828, 19, 19 },
//  { 6, 64.0493519855893, 2311, 2312 },
//  { 10, 61.99050590861147, 19, 19 },
//  { 11, 59.50525376876129, 19, 19 },
//  { 8, 106.60080201439597, 2314, 2317 },
//  { 4, 83.60048906113975, 2315, 2316 },
//  { 1, 212.21477515772673, 19, 19 },
//  { 10, 51.9004491953647, 19, 19 },
//  { 10, 66.34966615231227, 2318, 2319 },
//  { 8, 108.79040124816373, 19, 19 },
//  { 10, 67.71724917074538, 19, 19 },
//  { 10, 84.37266293418251, 2321, 2325 },
//  { 11, 90.93024414914206, 2322, 19 },
//  { 10, 83.05038932247571, 2323, 2324 },
//  { 4, 98.19043203778119, 19, 26 },
//  { 9, 135.53126499686914, 26, 26 },
//  { 11, 135.58560718436985, 2326, 2329 },
//  { 7, 229.27579563636135, 2327, 2328 },
//  { 8, 117.19306367179055, 26, 26 },
//  { 3, 251.82326060990954, 26, 26 },
//  { 0, 164.0407052673589, 26, 19 },
//  { 8, 134.88559266872966, 2331, 2336 },
//  { 3, 242.9401432964672, 19, 2332 },
//  { 5, 178.11631229106166, 2333, 2334 },
//  { 0, 132.00305162416913, 19, 26 },
//  { 1, 225.77893983003634, 2335, 19 },
//  { 3, 250.4871530409377, 19, 26 },
//  { 8, 144.61299204296105, 2337, 26 },
//  { 11, 103.5861324777762, 2338, 2340 },
//  { 11, 83.17260636304161, 26, 2339 },
//  { 10, 108.29313076533988, 26, 26 },
//  { 8, 141.54538692140272, 2341, 26 },
//  { 8, 137.81566845291093, 26, 26 },
//  { 6, 118.87096034729433, 2343, 2351 },
//  { 4, 111.60145784290576, 26, 2344 },
//  { 9, 202.18162760659197, 2345, 2348 },
//  { 6, 104.2269835184454, 26, 2346 },
//  { 10, 126.49605105654153, 2347, 26 },
//  { 9, 150.41168215051837, 26, 26 },
//  { 8, 149.2658459135638, 26, 2349 },
//  { 9, 234.79798646354953, 2350, 26 },
//  { 5, 221.44302663553648, 26, 26 },
//  { 7, 224.6279485573191, 26, 2352 },
//  { 10, 139.1844359381052, 2353, 2359 },
//  { 3, 253.78237956286517, 2354, 2357 },
//  { 5, 161.9777646171757, 2355, 2356 },
//  { 0, 151.0129891550229, 26, 26 },
//  { 10, 121.56970142972176, 26, 26 },
//  { 4, 164.16339773366386, 2358, 26 },
//  { 0, 149.50639687641822, 26, 26 },
//  { 6, 173.70120266578215, 2360, 26 },
//  { 4, 154.02845556104018, 26, 2361 },
//  { 4, 190.79237326644005, 26, 26 },
//  { 7, 124.56129230119348, 2363, 2516 },
//  { 7, 29.852197269840257, 2364, 2435 },
//  { 1, 57.537808249489316, 2365, 2391 },
//  { 11, 7.6690934261628865, 2366, 2388 },
//  { 4, 5.498762948670779, 2367, 2375 },
//  { 0, 2.8786316583299225, 2368, 7 },
//  { 8, 13.978492152867137, 2369, 2372 },
//  { 4, 1.7109983492228196, 7, 2370 },
//  { 11, 3.7269324542614317, 2371, 7 },
//  { 9, 23.475674370990916, 7, 7 },
//  { 6, 4.833897556566585, 2373, 7 },
//  { 6, 2.909560828893241, 2374, 7 },
//  { 9, 41.85147915913327, 18, 7 },
//  { 11, 2.662219048320418, 2376, 2383 },
//  { 10, 4.299656422016982, 2377, 2380 },
//  { 1, 47.701400787430536, 7, 2378 },
//  { 5, 48.2975271783292, 7, 2379 },
//  { 6, 0.37162105896120007, 7, 7 },
//  { 10, 6.0544567941941585, 2381, 7 },
//  { 8, 16.01027887315037, 2382, 7 },
//  { 9, 38.24591988196872, 7, 7 },
//  { 10, 5.663457969512538, 7, 2384 },
//  { 6, 7.7265515889630425, 2385, 2386 },
//  { 0, 5.326692985988545, 7, 18 },
//  { 6, 8.88217612397027, 2387, 7 },
//  { 1, 2.704515780184658, 7, 18 },
//  { 0, 10.523523246647567, 7, 2389 },
//  { 5, 52.92788254373143, 18, 2390 },
//  { 1, 44.0366933592766, 7, 18 },
//  { 9, 147.4437310488167, 2392, 2407 },
//  { 7, 8.462879810697808, 2393, 2401 },
//  { 9, 66.13004233181944, 18, 2394 },
//  { 9, 106.25033446180184, 2395, 2398 },
//  { 1, 138.258492438243, 2396, 7 },
//  { 6, 19.420456525599796, 2397, 18 },
//  { 9, 81.98576788463899, 18, 18 },
//  { 6, 24.0947898878226, 2399, 18 },
//  { 0, 46.74284428904897, 18, 2400 },
//  { 9, 139.52363819280808, 18, 18 },
//  { 8, 45.842358226348814, 2402, 2404 },
//  { 6, 15.267145790284102, 18, 2403 },
//  { 2, 14.808979181018183, 18, 7 },
//  { 6, 19.671654357887643, 18, 2405 },
//  { 6, 24.358432523607476, 2406, 18 },
//  { 1, 108.67129633327541, 18, 19 },
//  { 7, 8.719336657188524, 2408, 2421 },
//  { 4, 51.03470627359799, 2409, 2413 },
//  { 5, 153.07639680433851, 2410, 18 },
//  { 1, 137.58971845944865, 18, 2411 },
//  { 4, 50.52831410967201, 18, 2412 },
//  { 5, 147.42461643574043, 18, 18 },
//  { 9, 158.9553405456037, 2414, 2417 },
//  { 0, 63.88254331512495, 2415, 19 },
//  { 7, 5.222444657805583, 2416, 19 },
//  { 7, 0.3939779430599781, 18, 18 },
//  { 9, 198.43938638709457, 2418, 18 },
//  { 7, 4.756662236878957, 2419, 2420 },
//  { 6, 18.943336510073085, 18, 18 },
//  { 7, 7.114838472155313, 18, 18 },
//  { 9, 181.8944233618185, 2422, 2430 },
//  { 10, 20.69528713202816, 2423, 2426 },
//  { 8, 53.38437237375619, 18, 2424 },
//  { 9, 161.37078933388497, 2425, 18 },
//  { 0, 53.91792285764493, 19, 18 },
//  { 4, 69.65214324353829, 2427, 26 },
//  { 8, 59.66149513640511, 2428, 2429 },
//  { 0, 58.189614473930384, 19, 18 },
//  { 9, 155.05776672533608, 18, 19 },
//  { 2, 85.3527035379562, 2431, 19 },
//  { 2, 4.974726563773456, 2432, 19 },
//  { 8, 75.40205938108362, 2433, 2434 },
//  { 7, 11.423005310084207, 18, 18 },
//  { 7, 17.646133822689826, 18, 19 },
//  { 2, 16.574857265024846, 2436, 2483 },
//  { 2, 0.9071880136184338, 2437, 2468 },
//  { 6, 44.833427080341345, 2438, 2458 },
//  { 4, 44.9055495275676, 2439, 2449 },
//  { 4, 20.67715535530688, 2440, 2445 },
//  { 6, 6.259658644096767, 2441, 2443 },
//  { 9, 56.195912423169204, 2442, 18 },
//  { 5, 16.041236185953597, 7, 19 },
//  { 10, 34.57577390623082, 18, 2444 },
//  { 1, 1.8903982284899792, 7, 18 },
//  { 8, 58.40613142419892, 2446, 2448 },
//  { 9, 70.51650232985453, 7, 2447 },
//  { 9, 140.4691071433337, 19, 18 },
//  { 7, 63.31411574003944, 26, 7 },
//  { 8, 95.94418390372032, 2450, 2457 },
//  { 8, 65.77848399327065, 2451, 2454 },
//  { 0, 57.887305515300156, 2452, 2453 },
//  { 10, 19.12600177020114, 19, 19 },
//  { 9, 176.97551584987693, 19, 18 },
//  { 11, 22.297099045616157, 2455, 2456 },
//  { 3, 17.040818885453426, 18, 19 },
//  { 3, 16.45569061602265, 19, 19 },
//  { 8, 104.29570795888813, 18, 26 },
//  { 8, 116.24409094324525, 2459, 2464 },
//  { 1, 25.856311553090954, 26, 2460 },
//  { 0, 37.381755978512466, 26, 2461 },
//  { 6, 76.96360077427867, 2462, 2463 },
//  { 5, 168.84816990040622, 19, 26 },
//  { 10, 90.72712035836983, 26, 18 },
//  { 11, 28.50746512948883, 2465, 26 },
//  { 9, 191.44040760139023, 18, 2466 },
//  { 3, 12.54101965415339, 26, 2467 },
//  { 10, 94.71471817452215, 26, 18 },
//  { 0, 93.58545811734416, 2469, 2477 },
//  { 6, 90.56689782560193, 2470, 26 },
//  { 10, 67.51258063852441, 2471, 26 },
//  { 0, 59.98867991379866, 2472, 2474 },
//  { 11, 3.474586978310061, 19, 2473 },
//  { 0, 51.89027224848525, 19, 19 },
//  { 7, 83.64302007790795, 2475, 2476 },
//  { 5, 202.93234338841046, 19, 19 },
//  { 0, 64.35122867550292, 19, 19 },
//  { 1, 204.45776462809079, 2478, 2481 },
//  { 3, 40.725373368116735, 26, 2479 },
//  { 4, 130.46608927448563, 2480, 26 },
//  { 3, 51.143052092819964, 18, 26 },
//  { 3, 51.21223586854163, 26, 2482 },
//  { 1, 212.76410414127824, 19, 26 },
//  { 1, 233.73340094077093, 2484, 2515 },
//  { 5, 206.01093981136145, 2485, 2505 },
//  { 8, 77.48820700984831, 2486, 2498 },
//  { 5, 145.77333266277486, 2487, 2492 },
//  { 5, 106.53579065461447, 2488, 2490 },
//  { 7, 113.74067273397961, 2489, 19 },
//  { 5, 62.91552991695494, 19, 19 },
//  { 6, 33.9937233943463, 2491, 19 },
//  { 9, 147.3407215798929, 19, 19 },
//  { 8, 65.17177822262597, 2493, 2495 },
//  { 5, 149.17355849927924, 19, 2494 },
//  { 11, 21.078193549103194, 19, 19 },
